tree
version=v4
num_class=1
num_tree_per_iteration=1
label_index=0
max_feature_idx=77
objective=binary sigmoid:1
feature_names=total_starts total_win_rate total_earnings turf_win_rate dirt_win_rate distance_similar_win_rate prev_race_rank days_since_last_race avg_passage_position avg_last_3f grade_race_starts father_win_rate father_top3_rate mother_father_win_rate mother_father_top3_rate avg_diff_seconds min_diff_seconds prev_diff_seconds avg_first_corner avg_last_corner avg_position_change heavy_track_win_rate distance_change kiryou is_female horse_age horse_weight weight_change trainer_win_rate trainer_top3_rate trainer_starts jockey_win_rate jockey_top3_rate jockey_starts track_win_rate track_top3_rate race_distance is_turf is_dirt is_良 is_稍重 is_重 is_不良 frame_number father_turf_win_rate father_dirt_win_rate father_heavy_win_rate father_short_win_rate father_long_win_rate mother_father_turf_win_rate mother_father_dirt_win_rate mother_father_heavy_win_rate mother_father_short_win_rate mother_father_long_win_rate running_style recent_3race_improvement jockey_track_win_rate jockey_track_top3_rate good_track_win_rate finish_strength field_win_rate_rank field_jockey_rank field_trainer_rank field_earnings_rank field_last3f_rank field_diff_rank field_size waku_win_rate field_waku_rank jockey_changed jockey_change_quality father_track_win_rate mother_father_track_win_rate consecutive_losses form_trend best_distance_diff horse_waku_win_rate large_field_win_rate
feature_infos=[0:147] [0:0.80000000000000004] none [0:1] [0:1] [0:1] [1:99] [0:365] [0:16.5] [0:60.799999999999997] none [0:0.59999999999999998] [0:1] [0:1] [0:1] [0.10000000000000001:2] [0.10000000000000001:2] [0.10000000000000001:2] none none none [0:1] [-2250:2100] [48:64] [0:1] [2:12] [0:630] [-46:66] [0:0.1875] [0:1] [1:2025] [0:0.5] [0:1] [1:3483] [0:1] [0:1] [1000:4250] [0:1] none [0:1] [0:1] [0:1] [0:1] [1:8] [0:0.59999999999999998] none [0:1] [0:1] [0:1] [0:1] none [0:1] [0:0.66666666666666663] [0:1] [1:4] [-17:17] [0:1] [0:1] [0:1] none [0:1] [0:1] [0:1] none [0:1] [0:1] [5:18] [0:0.1451612903225806] [0.055555555555555497:1] [0:1] [-0.26453668900147081:0.26453668900147081] [0:0.59999999999999998] [0:0.5714285714285714] [0:37] [-98:98] [0:3.0499999999999998] [0:1] [0:1]
tree_sizes=3298 3420 3406 3386 3407 3418 3380 3418 3429 3340 3413 3414 3454 3399 3405 3422 3403 3408 3426 3447 3386 3443 3439 3407 3411 3427 3433 3422 3445 3403 3388 3394 3430 3440 3442 3441 3444 3423 3422 3455 3435 3414 3428 3451 3435 3463 3410 3442 3433 3398 3447 3447 3434 3473 3426 3455 3435 3466 3457 3438 3434 3425 3473 3427 3423 3470 3435 3473 3428 3466 3459 3431 3423 3483 3423 3467 3443 3437 3368 3392 3484 3406 3475 3418 3450 3448 3432 3477 3423 3463 3421 3432 3469 3440 3443 3463 3451 3422 3456 3460 3454 3475 3471

Tree=0
num_leaves=30
num_cat=0
split_feature=6 57 61 57 60 57 60 60 57 6 6 6 6 6 60 62 29 57 57 1 57 8 73 72 62 60 71 6 71
split_gain=8761.17 3207.36 1397.27 683.096 665.275 622.57 425.136 396.714 297.959 275.66 187.701 256.059 179.366 166.931 153.98 133.866 108.875 106.623 92.8223 87.1103 86.833 79.785 76.0388 74.1575 68.3264 70.1601 66.6477 62.593 60.5467
threshold=4.5000000000000009 0.25238875238875241 0.81534090909090928 0.40238095238095245 0.88562091503267981 0.16024116847826089 0.88562091503267981 0.81534090909090928 0.1178122934567085 7.5000000000000009 1.5000000000000002 2.5000000000000004 7.5000000000000009 7.5000000000000009 0.87083333333333346 0.3550420168067227 0.23260437580862495 0.41615541922290394 0.50625000000000009 0.079156223893065966 0.10032467532467532 6.3100961538461551 2.5000000000000004 0.026815675934803402 0.3550420168067227 0.97058823529411764 0.073626919245133524 1.5000000000000002 0.030121575031754656
decision_type=2 2 2 2 2 2 2 2 2 2 2 2 2 2 2 2 2 2 2 2 2 2 2 2 2 2 2 2 2
left_child=2 5 4 6 8 12 13 17 -1 19 21 -12 -2 -3 -11 -8 -16 27 -5 -7 -6 -10 -13 -9 -14 -26 -17 -4 -22
right_child=1 3 7 18 20 9 15 23 10 14 11 22 24 -15 16 26 -18 -19 -20 -21 28 -23 -24 -25 25 -27 -28 -29 -30
leaf_value=-1.2899800113521764 -1.3002221696871334 -1.2725255389663579 -1.2636147276444289 -1.2482398774461947 -1.2764967667520739 -1.2887803053215325 -1.2808965480426329 -1.265004847004634 -1.2679748607147951 -1.3047616315118453 -1.2383246624707471 -1.2597193864215894 -1.3185316958079669 -1.2893539255595743 -1.2979539276264718 -1.2640501191907898 -1.2771173793449608 -1.2186879850528247 -1.2171460340893481 -1.2714537964774719 -1.2719103982168887 -1.2906880268060568 -1.2786580108745031 -1.2008778461182363 -1.3126981903550963 -1.296854031675275 -1.2437147908689248 -1.2384274081739661 -1.224429847653745
leaf_weight=538.92748714983463 1680.5558308660984 1302.6773592829704 214.78870819509029 464.44019167125225 62.412870869040489 1196.5584725737572 298.96955582499504 37.413710057735443 643.68587531149387 3193.2601534277201 806.43551406264305 1391.7900141477585 3027.7895175814629 2057.7540531754494 856.77396032214165 455.59695111215115 540.1179233789444 394.54457879066467 240.9783052355051 578.21188271045685 52.37919408082962 295.39824713766575 400.15663529932499 838.06710529327393 2302.1336047798395 546.41022916138172 596.40855078399181 788.57897062599659 814.25838071107864
leaf_count=3169 9882 7660 1263 2731 367 7036 1758 220 3785 18777 4742 8184 17804 12100 5038 2679 3176 2320 1417 3400 308 1737 2353 4928 13537 3213 3507 4637 4788
internal_value=-1.2817 -1.29469 -1.24722 -1.27064 -1.25823 -1.30407 -1.27579 -1.22319 -1.26478 -1.29549 -1.26087 -1.25574 -1.31125 -1.28276 -1.30026 -1.25835 -1.28976 -1.2361 -1.23689 -1.283 -1.23002 -1.27535 -1.26381 -1.20325 -1.31435 -1.30977 -1.25218 -1.24348 -1.22697
internal_weight=26617.5 19338.6 7278.84 5416.82 5005.44 13921.8 4711.41 2273.39 4076.39 6364.92 3537.47 2598.38 7556.89 3360.43 4590.15 1350.98 1396.89 1397.91 705.418 1774.77 929.05 939.084 1791.95 875.481 5876.33 2848.54 1052.01 1003.37 866.638
internal_count=156516 113715 42801 31852 29433 81863 27704 13368 23970 37427 20801 15279 44436 19760 26991 7944 8214 8220 4148 10436 5463 5522 10537 5148 34554 16750 6186 5900 5096
is_linear=0
shrinkage=1


Tree=1
num_leaves=30
num_cat=0
split_feature=56 73 14 73 32 60 56 14 61 60 1 56 54 32 54 73 1 66 5 3 60 5 66 29 66 66 60 60 65
split_gain=5768.01 1692.55 1670.54 1485.99 505.832 427.205 423.189 390.622 387.366 316.024 257.751 186.248 173.206 169.303 153.709 145.403 125.834 122.157 98.9422 97.7491 119.144 87.1541 84.2529 81.8316 70.5968 69.4681 67.323 66.6765 66.5791
threshold=0.085188850404090369 1.0000000180025095e-35 0.097167584579071611 1.0000000180025095e-35 0.18988468930172961 0.81534090909090928 0.17492331288343557 0.18206931190356604 0.87083333333333346 0.77350427350427364 0.027973395931142352 0.044801852804940763 2.5000000000000004 0.49311926605504591 2.5000000000000004 3.5000000000000004 0.073801742919389915 11.500000000000002 0.07275132275132272 0.086335403726708074 0.88562091503267981 0.17519181585677748 13.500000000000002 0.21509884409272181 10.500000000000002 13.500000000000002 0.97058823529411764 0.82843137254901966 0.65686274509803932
decision_type=2 2 2 2 2 2 2 2 2 2 2 2 2 2 2 2 2 2 2 2 2 2 2 2 2 2 2 2 2
left_child=1 2 11 6 10 17 7 23 12 25 -3 -1 27 16 -6 19 -10 -4 -19 -12 -21 -7 -13 -2 -16 -9 -11 -5 -25
right_child=3 4 5 8 14 21 -8 9 13 26 15 22 -14 -15 24 -17 -18 18 -20 20 -22 -23 -24 28 -26 -27 -28 -29 -30
leaf_value=-0.026406006119232016 0.0028799420232066193 -0.029813263889573151 0.034544663200051014 0.0072216283283734369 0.0043051851058555956 0.054220146942129191 0.068335234139833084 0.046162362179544614 0.010275969079863518 0.055298370093601522 -0.014245381033980174 0.0072260937758505473 -0.0036126525786825438 0.052094230638941565 0.0038164201872014896 -0.024768770021359805 0.032512125449829871 0.019853852575494008 0.001799831039361774 -0.0072287723181483059 0.034291602430011267 0.026996382037756703 -0.012598907032511611 0.0031842873887473664 -0.013874609786956964 0.024947074415932174 0.084281129933504673 0.030193711334832583 0.031730229080878421
leaf_weight=1242.0139394104481 350.91890123486519 4592.4860043674707 364.535275131464 451.07896879315376 1012.9632960557938 605.50955571234226 752.86347807943821 399.70598137378693 893.42975151538849 545.64161810278893 1925.0811992883682 412.59296596050262 1869.7253583520651 266.90689624845982 320.98106859624386 1850.4188794493675 615.61068752408028 820.83369016647339 885.51890741288662 304.58486160635948 126.93165285885334 295.92776706814766 894.96752075850964 163.0297966003418 2875.7613421231508 680.97477039694786 240.12284044921398 315.53673928976059 537.37898482382298
leaf_count=7415 2051 27387 2122 2646 5955 3477 4278 2312 5215 3111 11447 2436 10977 1521 1895 11020 3572 4760 5167 1811 749 1701 5301 954 16994 3936 1358 1830 3118
internal_value=-3.99288e-05 -0.0113912 0.00568976 0.0259479 -0.018657 0.0244908 0.0432959 0.0366417 0.0114306 0.0468392 -0.0237 -0.0161518 0.00235563 0.0247328 -0.00804774 -0.016945 0.0195752 0.0150377 0.0106453 -0.0106671 0.00479091 0.0457427 -0.00617823 0.0181823 -0.0120287 0.0331903 0.0649679 0.0171041 0.0254645
internal_weight=26614 18531.1 5521.9 8082.92 13009.2 2972.33 3670.64 2917.77 4412.29 1866.45 8799.5 2549.57 2636.34 1775.95 4209.71 4207.02 1509.04 2070.89 1706.35 2356.6 431.517 901.437 1307.56 1051.33 3196.74 1080.68 785.764 766.616 700.409
internal_count=156516 109637 32379 46879 77258 17227 21118 16840 25761 10717 52414 15152 15453 10308 24844 25027 8787 12049 9927 14007 2560 5178 7737 6123 18889 6248 4469 4476 4072
is_linear=0
shrinkage=0.0368943


Tree=2
num_leaves=30
num_cat=0
split_feature=6 32 61 60 60 60 61 62 62 66 73 60 66 6 56 66 35 60 56 66 64 72 3 32 6 72 61 56 6
split_gain=7646.88 2142.03 1438.34 560.378 556.469 426.72 267.878 248.482 231.48 199.464 172.566 168.707 163.588 133.571 105.257 102.521 102.235 98.375 96.5289 95.0464 87.1256 81.0345 74.5945 73.252 69.021 64.8299 58.9539 54.1817 53.9036
threshold=5.5000000000000009 0.23268018531176424 0.77350427350427364 0.97058823529411764 0.81534090909090928 0.88562091503267981 0.87083333333333346 0.54195804195804198 0.54195804195804198 11.500000000000002 2.5000000000000004 0.88562091503267981 12.500000000000002 7.5000000000000009 0.18708333333333332 11.500000000000002 0.40588235294117653 0.12916666666666668 0.14172696361530912 11.500000000000002 0.5590277777777779 0.07484412436176556 0.086335403726708074 0.14320276497695852 9.5000000000000018 0.031414473684210506 0.26969696969696971 0.11351921274601687 3.5000000000000004
decision_type=2 2 2 2 2 2 2 2 2 2 2 2 2 2 2 2 2 2 2 2 2 2 2 2 2 2 2 2 2
left_child=2 7 4 6 9 12 19 13 27 28 15 24 -4 -2 -8 -6 26 -14 -10 -3 -19 -17 -13 -15 -9 -7 -11 -5 -1
right_child=1 3 5 8 10 25 14 11 18 16 -12 22 17 23 -16 21 -18 20 -20 -21 -22 -23 -24 -25 -26 -27 -28 -29 -30
leaf_value=0.033395233550002075 -0.016936958615452687 0.0046527649406152508 0.055124574922949365 -0.0037430833825603622 0.061091561458335129 0.013458850393845968 0.0057327150203867368 -0.01357107709278396 0.025631572527873025 -0.0078428408965465213 0.0054033921018682915 -0.0067530241238524412 0.0016293129323144684 -0.034346364329999969 0.034106571739902128 0.023722744938039206 0.014112247055625379 0.024641313490187427 0.053867698042595384 -0.011949705506303726 0.042817379743451435 0.044145587829340846 0.0255939768654409 -0.025501441334650456 -0.025907156367169941 0.071721599722897364 0.0044996632341317488 0.020990786219887727 0.011963564885687032
leaf_weight=478.96566231548786 1317.6611326485872 546.54404802620411 629.24855400621891 386.85666273534298 249.89881877601147 39.254481449723244 1102.1897804737091 1168.0523332804441 673.95456993579865 777.60712137818336 274.1969259083271 927.55434200167656 146.48692972958088 3350.2492334544659 215.33689481019974 684.33587354421616 1082.0445969998837 774.25345209240913 259.71207794547081 2649.4701842516661 923.62340159714222 567.46817122399807 100.97231113910675 2727.503174290061 1679.0893491953611 805.99168713390827 1592.4773420393467 163.45455260574818 308.9528423845768
leaf_count=2731 7888 3222 3543 2272 1408 223 6425 7017 3884 4590 1614 5536 835 20355 1204 3892 6275 4389 1453 15671 5219 3214 591 16426 10144 4434 9301 937 1823
internal_value=-3.80479e-05 -0.014588 0.0268479 0.00319281 0.0160122 0.0463643 -0.00323827 -0.0240649 0.022832 0.0086609 0.0333611 -0.0163243 0.0382749 -0.0280772 0.0106573 0.0382859 0.00474246 0.0322592 0.0339912 -0.00904136 0.0347635 0.0333077 -0.00324912 -0.0304395 -0.0209577 0.0693727 0.000352157 0.00336425 0.0254047
internal_weight=26603.4 17268.6 9334.81 5997.52 6015.95 3318.86 4513.54 11271.1 1483.98 4240.05 1775.9 3875.67 2473.61 7395.41 1317.53 1501.7 3452.13 1844.36 933.667 3196.01 1697.88 1251.8 1028.53 6077.75 2847.14 845.246 2370.08 550.311 787.919
internal_count=156516 103025 53491 35068 34848 18643 26522 67957 8546 24720 10128 23288 13986 44669 7629 8514 20166 10443 5337 18893 9608 7106 6127 36781 17161 4657 13891 3209 4554
is_linear=0
shrinkage=0.0368943


Tree=3
num_leaves=30
num_cat=0
split_feature=6 57 57 60 57 60 57 60 57 57 60 60 57 71 3 66 8 6 6 6 57 29 64 6 57 6 28 6 6
split_gain=7055.23 2355.55 1276.12 577.127 531.96 363.783 362.987 325.411 184.821 168.078 166.965 143.795 136.349 119.651 110.985 106.302 96.9544 93.2056 156.242 93.0731 91.0674 82.8957 77.4466 77.3469 74.7962 74.0274 68.0444 59.9813 59.8521
threshold=5.5000000000000009 0.23448949334245717 0.24953531598513012 0.74166666666666681 0.37646074720687744 0.81534090909090928 0.15433440687063874 0.88562091503267981 0.10719918882379446 0.41615541922290394 0.97058823529411764 0.87083333333333346 0.12924104812610918 0.073626919245133524 0.075961538461538455 12.500000000000002 6.6082693947144078 3.5000000000000004 1.5000000000000002 3.5000000000000004 0.47033685268979392 0.18804847697884544 0.54195804195804198 8.5000000000000018 0.39250700280112044 1.5000000000000002 0.060689624248946257 2.5000000000000004 7.5000000000000009
decision_type=2 2 2 2 2 2 2 2 2 2 2 2 2 2 2 2 2 2 2 2 2 2 2 2 2 2 2 2 2
left_child=2 6 5 9 7 8 21 15 -1 16 24 23 -7 -9 26 -3 22 18 -10 25 -6 -2 -4 -8 -5 -14 -13 -20 -17
right_child=1 4 3 10 20 12 11 13 17 -11 -12 14 19 -15 -16 28 -18 -19 27 -21 -22 -23 -24 -25 -26 -27 -28 -29 -30
leaf_value=-0.01588093632888565 -0.03424522342300429 0.0056551774215726595 0.017374973439566576 0.04096327697415196 0.021180202655835392 0.005005394462141508 -0.012589406826679835 0.0036634546307312017 -0.00053446314819743717 0.048330266461776517 0.071237218041774047 -0.020075465110623535 0.020332162023182908 0.025360599609024235 0.022390147042083544 0 0.0071822648229193826 0.00097687515225179113 0.032624501080516718 0.019381758329540262 0.048020686542050023 -0.02509850482596469 0.034578347116932209 -0.024189480506445902 0.06298114172236273 0.05057708724597005 -0.0026836768388779431 0.01386690818503741 -0.012854222470378433
leaf_weight=470.60483501851559 3162.3274471610785 834.13454738259315 755.56668256223202 1187.8703621923923 467.12299911677837 311.85779781639576 1309.0806867927313 679.91728566586971 577.11732406914234 436.71090292930603 589.5292307138443 540.4187463670969 192.20121768116951 763.21579004824162 152.55362114310265 685.36811654269695 479.54437056183815 1236.1516635715961 495.84543035924435 456.63056787848473 340.31012171506882 3066.4669927060604 873.99469824135303 2509.3202987462282 352.40656547248363 481.63615807890892 778.44730274379253 568.92382070422173 1831.8861407190561
leaf_count=2787 19556 4920 4285 6561 2650 1784 7889 3937 3339 2369 3142 3274 1061 4361 894 4033 2731 7307 2803 2631 1858 18800 4922 15312 1889 2629 4638 3251 10903
internal_value=-3.74752e-05 -0.0141767 0.0255044 0.0392272 0.00541272 0.0120372 -0.02372 0.00068713 0.00526754 0.0271008 0.0535118 -0.0164926 0.0275254 0.0153389 -0.00644801 -0.00557452 0.0224862 0.00882355 0.0145791 0.0334955 0.033011 -0.0298033 0.0268197 -0.0202926 0.0463521 0.0425051 -0.0100256 0.0229271 -0.00938376
internal_weight=26587.2 17120.6 9466.59 4675.62 5601.96 4790.97 11518.6 4794.52 3348.64 2545.82 2129.81 5289.82 1442.33 1443.13 1471.42 3351.39 2109.11 2878.04 1641.89 1130.47 807.433 6228.79 1629.56 3818.4 1540.28 673.837 1318.87 1064.77 2517.25
internal_count=156516 103025 53491 25899 32662 27592 70363 28154 19487 14307 11592 32007 8105 8298 8806 19856 11938 16700 9393 6321 4508 38356 9207 23201 8450 3690 7912 6054 14936
is_linear=0
shrinkage=0.0368943


Tree=4
num_leaves=30
num_cat=0
split_feature=6 57 61 57 60 60 60 57 57 57 57 6 29 62 66 66 6 71 66 60 60 6 3 60 66 71 60 8 6
split_gain=6515.15 2238.38 1157.46 563.357 454.188 321.693 261.561 256.855 210.382 166.148 160.447 135.514 135.231 134.907 129.206 125.033 96.2376 92.1317 86.9802 79.2773 76.5582 74.7686 69.0069 68.8049 60.4074 59.1717 58.2299 56.7988 56.5275
threshold=5.5000000000000009 0.22098668475350727 0.77350427350427364 0.35021367521367525 0.74166666666666681 0.81534090909090928 0.82843137254901966 0.13536417773705908 0.12924104812610918 0.14492107069320517 0.46271186440677969 3.5000000000000004 0.24025337427042803 0.76696832579185525 14.500000000000002 12.500000000000002 1.5000000000000002 0.065318976026005657 12.500000000000002 0.88562091503267981 0.74166666666666681 7.5000000000000009 0.073622402890695507 0.12916666666666668 13.500000000000002 0.074227119681665107 0.89444444444444449 6.4519969278033802 1.5000000000000002
decision_type=2 2 2 2 2 2 2 2 2 2 2 2 2 2 2 2 2 2 2 2 2 2 2 2 2 2 2 2 2
left_child=2 7 4 6 9 15 18 -2 -6 -1 20 16 -8 21 27 -4 -10 -7 -3 -15 -5 -9 -13 -17 -14 -22 -23 -11 -25
right_child=1 3 5 10 8 17 12 13 11 14 -12 22 24 19 -16 23 -18 -19 -20 -21 25 26 -24 28 -26 -27 -28 -29 -30
leaf_value=-0.007213086330907028 -0.030842300504139247 0.00083251271073254073 0.047210491055311478 0.0046877286300043824 0.0024404123278169805 0.037231077025275942 -0.00087788788793750309 -0.011623895094715871 0.02301960470728219 0.024681801598613776 0.044259484775503413 0.011716657649118547 0.032048855315225562 -0.013230253166966804 0.0030409908798681488 0.00075159891772197927 0.046779160855843084 0.062382837754835087 -0.01271432037072457 0.0085191662422083748 0.010551085676993087 -0.027172872305017998 0.037980458712387241 0.011723865429506451 0.010770058173531837 0.035914735081630782 -0.015992722649465531 0.0072854958563500433 0.03235872594086471
leaf_weight=915.19285446405411 4733.722421169281 844.76353920996189 584.6867211163044 516.28458487987518 418.461794257164 356.53249993920326 1000.6490371972322 892.51516176760197 403.9556193202734 877.95041155815125 372.81311105191708 578.61122791469097 311.44296264648438 792.70797716081142 1456.8705077916384 148.39597004652023 850.16956980526447 961.7298084795475 2376.722354888916 302.53652183711529 265.84030385315418 2669.7349723875523 197.00273981690407 266.01471056044102 560.60071642696857 313.24175556004047 1021.5266118496656 423.84959700703621 1149.9344193488359
leaf_count=5395 29692 4996 3154 3000 2414 1873 5865 5423 2210 4986 1990 3322 1768 4881 8398 835 4577 5010 14265 1798 1510 16615 1107 1462 3225 1752 6245 2439 6309
internal_value=-3.71796e-05 -0.0137767 0.0242563 0.00307008 0.0145343 0.041309 -0.00270201 -0.0244101 0.0268529 0.00623893 0.0231735 0.0317611 0.00818821 -0.0189858 0.0107837 0.0321172 0.0394332 0.0559304 -0.00910136 -0.00701761 0.0156121 -0.0217871 0.0188874 0.0261897 0.0187697 0.0248495 -0.0241655 0.019236 0.0286934
internal_weight=26564.5 16975.1 9589.36 6562.36 6122.06 3467.29 5094.18 10412.7 2448.2 3673.86 1468.18 2029.74 1872.69 5679.02 2758.67 2149.03 1254.13 1318.26 3221.49 1095.24 1095.37 4583.78 775.614 1564.35 872.044 579.082 3691.26 1301.8 1415.95
internal_count=156516 103025 53491 38371 34848 18643 30119 64654 13630 21218 8252 11216 10858 34962 15823 11760 6787 6883 19261 6679 6262 28283 4429 8606 4993 3262 22860 7425 7771
is_linear=0
shrinkage=0.0368943


Tree=5
num_leaves=30
num_cat=0
split_feature=6 32 61 60 60 60 29 66 61 56 60 73 6 66 6 3 6 66 28 72 66 32 60 72 61 8 6 54 6
split_gain=6012.36 1796.79 988.311 555.735 501.301 246.949 225.218 223.305 220.154 185.573 154.071 151.516 163.025 135.504 130.641 111.118 100.793 92.5663 88.5017 88.2344 85.8476 84.3416 72.6874 69.6047 65.3256 62.5793 61.4057 58.2243 57.7874
threshold=5.5000000000000009 0.23268018531176424 0.81534090909090928 0.88562091503267981 0.97058823529411764 0.81534090909090928 0.19280296997688304 11.500000000000002 0.87083333333333346 0.11729127134724855 0.88562091503267981 2.5000000000000004 1.5000000000000002 11.500000000000002 2.5000000000000004 0.087595907928388714 8.5000000000000018 12.500000000000002 0.076992372742775664 0.083697199810156622 12.500000000000002 0.50103305785123975 0.24264705882352941 0.031414473684210506 0.41421568627450983 6.0786893704850362 7.5000000000000009 2.5000000000000004 1.5000000000000002
decision_type=2 2 2 2 2 2 2 2 2 2 2 2 2 2 2 2 2 2 2 2 2 2 2 2 2 2 2 2 2
left_child=2 6 3 7 8 13 16 22 17 18 20 12 25 -4 -14 24 -2 -3 -6 -5 -8 -10 -1 -7 -12 -9 -22 -19 -15
right_child=1 4 5 19 9 23 10 11 21 -11 15 -13 14 28 -16 -17 -18 27 -20 -21 26 -23 -24 -25 -26 -27 -28 -29 -30
leaf_value=0.0065178321434050824 -0.018672911724385836 0.0021032244892570458 0.052897692298195881 0.029332755965186516 -0.00089952272204089868 0.0094365340450672415 -0.0087710078183321372 0.0031260748128240112 0.005388015624490726 0.03743719370394813 -0.016368116746355924 -0.0072014329478937581 0.026724434186996587 0.0094212163724017167 0.0086472902764504044 0.02257199626190767 -0.031096855767132111 -0.0006668628420146023 0.021359145470422152 0.051775153487350463 -0.012758419879651364 0.033591802482497192 0.031535368425386248 0.056025897866335495 0.00037581067055573368 -0.017190135567888301 -0.025746718582521821 -0.015235268946209713 0.029827242187966702
leaf_weight=233.73821207880974 1338.0714260786772 788.38998241722584 351.7456462085247 889.55420246720314 448.47972784936428 59.516772761940956 748.57125328481197 548.92754432559013 1161.0236967206001 587.40775907039642 815.07585734128952 889.51076897978783 802.40980912744999 269.11714768409729 1882.3492328971624 150.94494579732418 3813.8468614220619 504.71218933165073 483.0845198482275 411.12760938704014 715.63905598223209 166.08186985552311 742.62752288579941 1136.4505807161331 477.16641308367252 312.8309314250946 2742.9855997264385 1879.5990092903376 1234.7435561269522
leaf_count=1319 8368 4643 1842 4795 2619 316 4678 3131 6718 3173 5042 5248 4426 1461 10759 883 24307 2994 2712 2185 4408 868 4125 5751 2876 1813 17316 11352 6654
internal_value=7.7036e-05 -0.0132815 0.0231051 0.0151193 0.00284054 0.0405425 -0.0222806 0.00984057 -0.00331003 0.0211434 -0.0170644 0.00624406 0.00968198 0.0316553 0.014174 -0.00641501 -0.0279353 -0.00861861 0.010478 0.0367841 -0.0206536 0.00920524 0.0258342 0.0539392 -0.0100483 -0.00407042 -0.0231457 -0.0122488 0.0263651
internal_weight=26585.7 16821.1 9764.65 6713.08 6018.78 3051.57 10802.3 5412.39 4499.81 1518.97 5650.38 4436.03 3546.52 1855.61 2684.76 1443.19 5151.92 3172.7 931.564 1300.68 4207.2 1327.11 976.366 1195.97 1292.24 861.758 3458.62 2384.31 1503.86
internal_count=156782 102957 53825 37801 35079 16024 67878 30821 26575 8504 35203 25377 20129 9957 15185 8801 32675 18989 5331 6980 26402 7586 5444 6067 7918 4944 21724 14346 8115
is_linear=0
shrinkage=0.0368943


Tree=6
num_leaves=30
num_cat=0
split_feature=6 57 57 60 57 60 57 60 57 6 60 66 6 71 62 66 6 66 57 8 1 60 6 6 57 6 73 25 73
split_gain=5557.95 2008.96 956.391 471.533 438.614 319.209 316.806 273.72 196.554 159.58 147.504 124.934 123.09 113.451 107.656 103.274 99.9886 99.5135 99.3563 91.3064 69.8679 66.6353 62.4737 73.3762 59.3015 59.1956 58.6237 56.4457 52.7043
threshold=5.5000000000000009 0.23365472677317592 0.23926092940177449 0.82843137254901966 0.40238095238095245 0.68990384615384626 0.14085765336509828 0.88562091503267981 0.38039867109634556 3.5000000000000004 0.88562091503267981 13.500000000000002 1.5000000000000002 0.073626919245133524 0.36931818181818182 12.500000000000002 8.5000000000000018 12.500000000000002 0.11197791432896961 7.341784338896022 0.071796759941089819 0.93933823529411764 1.5000000000000002 4.5000000000000009 0.4950681677339393 8.5000000000000018 1.5000000000000002 4.5000000000000009 3.5000000000000004
decision_type=2 2 2 2 2 2 2 2 2 2 2 2 2 2 2 2 2 2 2 2 2 2 2 2 2 2 2 2 2
left_child=2 6 5 8 7 18 25 15 11 12 16 -4 -7 -9 -12 28 -8 -5 -1 26 -11 -6 -13 -24 -19 -2 -20 -14 -3
right_child=1 4 3 17 21 9 10 13 -10 20 14 22 27 -15 -16 -17 -18 24 19 -21 -22 -23 23 -25 -26 -27 -28 -29 -30
leaf_value=-0.016622269619888688 -0.021448022445310608 0.012047189099347001 0.030476323365752216 0.064487353335180603 0.022054151722235585 0.0091651985559239087 -0.01202359457372615 0.0029288558858987877 0.042390045631282458 -0.0026539489659171212 -0.018781701823387405 0 0.039000918779345702 0.023218162174658091 0.00038790039920770937 -0.0083466063423393022 -0.024012451377265241 0.038596851882263312 0.012638377943905339 -0.010212052706907792 0.016703484200657818 0.048281205211421464 0.021838090925929459 0.001043003419815293 0.066101567905478595 -0.031912243135093117 -0.003493199687041306 0.0097820916040089727 -0.0074845816050467476
leaf_weight=392.47926761209965 1185.3910354077816 619.86219200491905 1019.0567721128464 462.75258588790894 409.43779623508453 373.30419638752937 1542.2516459226608 734.5808020234108 702.89106518030167 436.48379418253899 629.36386494338512 344.53153072297573 802.36194787919521 826.96097162365913 1015.5207871794701 2635.795752748847 2997.6604681164026 1151.7362185418606 1085.0666987150908 475.24791404604912 547.41964246332645 256.20644403994083 1072.1831016391516 322.36863259971142 158.37269167602062 3579.2601958960295 398.23170907795429 129.12578573822975 250.3443009853363
leaf_count=2339 7577 3634 5484 2310 2199 2057 9567 4204 3625 2539 3949 1931 4256 4591 6109 15881 19146 5852 6125 2758 3092 1318 5842 1810 774 23307 2342 689 1475
internal_value=7.21663e-05 -0.0129035 0.0220122 0.0328337 0.00475683 0.00973407 -0.0221675 0.00100015 0.0247118 0.0195245 -0.0165534 0.0200517 0.0280283 0.013854 -0.00685856 -0.00467796 -0.0200065 0.0484402 8.92894e-05 0.00358438 0.00793703 0.0327893 0.0137421 0.0172058 0.0423555 -0.029382 0.00816884 0.0352604 0.00617495
internal_weight=26556.2 16682.6 9873.61 5233.89 5733.19 4639.72 10949.4 5067.54 3461.03 2288.7 6184.8 2758.14 1304.79 1561.54 1644.88 3506 4539.91 1772.86 2351.03 1958.55 983.903 665.644 1739.08 1394.55 1310.11 4764.65 1483.3 931.488 870.206
internal_count=156782 102957 53825 27628 33302 26197 69655 29785 18692 12633 38771 15067 7002 8795 10058 20990 28713 8936 13564 11225 5631 3517 9583 7652 6626 30884 8467 4945 5109
is_linear=0
shrinkage=0.0368943


Tree=7
num_leaves=30
num_cat=0
split_feature=6 57 57 60 60 57 60 57 57 62 57 60 73 6 62 6 6 72 6 57 57 6 6 73 6 57 8 72 72
split_gain=5140.71 1900.24 864.206 400.354 396.956 307.158 284.685 237.062 189.006 151.032 145.381 144.697 141.443 183.749 101.059 97.2983 84.181 84.136 78.7972 75.3886 66.0278 64.8724 107.989 62.9781 56.1496 52.7075 51.7526 51.7093 48.6027
threshold=5.5000000000000009 0.23365472677317592 0.28314103479861175 0.97058823529411764 0.88562091503267981 0.1375072296124927 0.87083333333333346 0.12773956167013276 0.35021367521367525 0.54195804195804198 0.43198001068792702 0.88562091503267981 1.5000000000000002 1.5000000000000002 0.36931818181818182 8.5000000000000018 2.5000000000000004 0.073655102152200363 7.5000000000000009 0.52291105121293813 0.37763903721350539 1.5000000000000002 3.5000000000000004 3.5000000000000004 8.5000000000000018 0.071796759941089819 5.2589023879346461 0.088809439138386514 0.056167641420147005
decision_type=2 2 2 2 2 2 2 2 2 2 2 2 2 2 2 2 2 2 2 2 2 2 2 2 2 2 2 2 2
left_child=2 5 4 8 7 24 10 25 18 -5 21 15 13 26 -13 -7 -15 -6 -3 -10 -11 -4 -23 -20 -2 -1 -9 -16 -8
right_child=1 3 6 9 17 11 28 12 19 20 -12 14 -14 16 27 -17 -18 -19 23 -21 -22 22 -24 -25 -26 -27 -28 -29 -30
leaf_value=-0.028889113749126102 -0.021112348191898396 0.0037708841968873978 0.0098564700192642195 0.004698040801302223 0.020561019397493868 -0.011815634237216885 0.029280678813009626 0.0090555029974641287 0.0088559780427130974 0.023636013666825929 0.045284019778928729 -0.018244244467611932 0.0003607501792267359 0.031045254311195616 -0.003419751286547367 -0.023587169835073751 0.015459745203654694 0.041155321139977191 -0.0051728532170105847 0.041349316249544382 0.048338471900113346 0.035894803387264793 0.016009743303989379 -0.019172270306562062 -0.031553247593304641 -0.0047735617850674355 -0.0094892234925649261 0.017945142333626238 0.056373061169322454
leaf_weight=155.47483664751053 1139.2383902221918 900.29414042830467 423.07182534039021 512.67593960464001 613.41733051836491 1557.5512741357088 163.98309625685215 445.46684892475605 896.88970440626144 702.01407526433468 588.72154048085213 634.45713469386101 1149.2793447524309 798.46325601637363 852.74712596833706 3026.3813676834106 1456.2564287632704 632.12069167196751 1781.8768259882927 110.73331041634083 229.40785937011242 903.23878808319569 745.03010968863964 611.27690373361111 3409.1215488314629 696.06821700930595 367.23446516692638 181.80876892805099 837.37156102061272
leaf_count=925 7381 5331 2278 2904 3228 9736 812 2491 5090 3828 2943 4029 6654 4237 5141 19627 8056 3253 10724 562 1154 4698 4010 3709 22654 4102 2094 1087 4044
internal_value=6.74717e-05 -0.0125351 0.0209885 0.00457539 0.0126478 -0.0216532 0.0352714 0.00798674 -0.00102824 0.0213489 0.028669 -0.0162434 0.0115938 0.0157253 -0.00671751 -0.0196531 0.0211371 0.0313221 -0.00535282 0.0128488 0.0302038 0.0237332 0.0271208 -0.00887395 -0.0290143 -0.00958652 0.000409955 0.000210003 0.0523378
internal_weight=26521.7 16546.5 9975.2 5745.17 6313.78 10801.3 3661.42 5068.24 4301.07 1444.1 2660.06 6252.95 4216.7 3067.42 1669.01 4583.93 2254.72 1245.54 3293.45 1007.62 931.422 2071.34 1648.27 2393.15 4548.36 851.543 812.701 1034.56 1001.35
internal_count=156782 102957 53825 33302 35040 69655 18785 28559 25416 7886 13929 39620 23532 16878 10257 29363 12293 6481 19764 5652 4982 10986 8708 14433 30035 5027 4585 6228 4856
is_linear=0
shrinkage=0.0368943


Tree=8
num_leaves=30
num_cat=0
split_feature=57 73 73 14 57 57 14 1 60 60 73 3 60 57 57 57 73 57 72 29 57 64 64 60 26 64 60 3 60
split_gain=4061.8 1145.88 765.458 705.881 430.605 364.637 304.814 302.152 229.049 175.136 172.835 163.595 159.21 123.878 116.74 98.8701 89.2284 87.1601 75.1474 73.0323 71.5646 71.1499 69.7123 66.2473 65.8306 64.6044 59.9872 79.3636 59.9515
threshold=0.22200605274535232 1.0000000180025095e-35 1.0000000180025095e-35 0.14777925335694259 0.38039867109634556 0.33705761316872435 0.16736694677871147 0.043244506778868604 0.65686274509803932 0.77350427350427364 2.5000000000000004 0.070598006644518263 0.68990384615384626 0.47033685268979392 0.1375072296124927 0.14526862026862028 2.5000000000000004 0.094466316710411155 0.060708435708435711 0.22441123705269309 0.074856321839080461 0.32291666666666669 0.3550420168067227 0.97058823529411764 447.00000000000006 0.29705882352941176 0.68990384615384626 0.073622402890695507 0.97058823529411764
decision_type=2 2 2 2 2 2 2 2 2 2 2 2 2 2 2 2 2 2 2 2 2 2 2 2 2 2 2 2 2
left_child=2 4 3 15 6 9 19 14 22 21 17 24 -5 16 -4 -1 28 -9 -6 -2 -14 -3 -8 -10 -11 -26 -19 -28 -7
right_child=1 5 7 12 18 13 8 10 23 11 -12 -13 20 -15 -16 -17 -18 26 -20 -21 -22 -23 -24 -25 25 -27 27 -29 -30
leaf_value=-0.024613852217954164 -0.00052804573827273059 -0.01364254240501008 -0.03115657633806555 0.004026095926529044 0.027399547127673004 0.015773601469754071 0.0026550488775035591 -0.023772195553336289 0.033622356621011686 -0.012532714092417623 -0.018544465874249506 0.027459023924361909 -0.016062730314922568 0.036992637200078102 -0.019863031538141167 -0.0074939785048473333 0.0010890610659247952 -0.0087874671450349964 0.053215727985465006 0.015439036426340811 0.02672227552965117 -0.0016210185865882846 0.022490585969792191 0.053453057297988334 -0.004606779190706259 0.01417872043954798 -0.0014608237574196459 0.020731902183480401 0.043000289633252205
leaf_weight=977.6542239934206 637.26470832526684 1015.1331449896097 2512.3061292171478 1046.9635494500399 256.42808642983437 1010.4486304223537 366.11128506064415 247.38582767546177 1312.9298767745495 309.54930371046066 2405.3886146098375 468.72904375195503 46.218282714486122 389.32906848192215 2938.6976967602968 961.63981415331364 568.85925132036209 695.55392454564571 896.47336229681969 906.23996751010418 1015.3350654691458 2101.5173686444759 896.98611429333687 368.38785146176815 390.59110496938229 614.67333276569843 683.83193726837635 306.82579842209816 135.3756722509861
leaf_count=6540 3676 6103 16728 5907 1264 5599 1981 1610 6691 1792 15429 2598 259 1937 18762 6029 3178 4412 4353 5052 5329 12495 4785 1751 2260 3496 4244 1832 690
internal_value=6.36819e-05 0.0151831 -0.0137378 -0.000188799 0.0275592 0.00517152 0.0222531 -0.0193149 0.0292384 -0.000307094 -0.0119323 0.00885078 0.0145153 0.0179974 -0.025134 -0.0162802 0.0134528 -0.00356733 0.0478198 0.00873286 0.0245854 -0.00562206 0.0169456 0.0382593 0.00196673 0.0066861 -0.0004078 0.00528045 0.0193716
internal_weight=26482.8 12645 13837.8 4047.81 5640.82 7004.21 4487.92 9789.99 2944.42 4900.19 4338.99 1783.54 2108.52 2104.01 5451 1939.29 1714.68 1933.6 1152.9 1543.5 1061.55 3116.65 1263.1 1681.32 1314.81 1005.26 1686.21 990.658 1145.82
internal_count=156782 69701 87081 24064 29553 40148 23936 63017 15208 28744 27527 10146 11495 11404 35490 12569 9467 12098 5617 8728 5588 18598 6766 8442 7548 5756 10488 6076 6289
is_linear=0
shrinkage=0.0368943


Tree=9
num_leaves=30
num_cat=0
split_feature=6 57 57 57 60 60 60 57 66 66 57 62 60 60 6 57 8 66 66 6 61 57 29 62 72 6 57 8 0
split_gain=4502.85 1712.08 712.392 442.872 353.391 259.289 189.542 189.449 172.038 158.481 134.628 105.759 105.628 95.838 92.0006 84.5091 81.4431 81.2028 80.7574 78.1219 76.104 74.509 63.5553 60.8858 54.6069 51.8291 51.6447 51.2223 47.9502
threshold=5.5000000000000009 0.20279316391571797 0.23926092940177449 0.3267725004302186 0.82843137254901966 0.68990384615384626 0.91287878787878796 0.11980861244019136 12.500000000000002 11.500000000000002 0.10032467532467532 0.53589743589743599 0.82843137254901966 0.97058823529411764 3.5000000000000004 0.11197791432896961 7.341784338896022 10.500000000000002 11.500000000000002 1.5000000000000002 0.85164835164835173 0.4854949831229482 0.22298672797575503 0.63068181818181823 0.037855266300453758 6.5000000000000009 0.4950681677339393 5.438048245614036 5.5000000000000009
decision_type=2 2 2 2 2 2 2 2 2 2 2 2 2 2 2 2 2 2 2 2 2 2 2 2 2 2 2 2 2
left_child=2 7 5 9 8 15 17 -2 27 22 -7 25 -11 -13 19 -1 -17 -5 -6 -12 -10 -19 -3 -14 -8 -9 -20 -4 -16
right_child=1 3 4 6 18 10 24 11 20 12 14 13 23 -15 28 16 -18 21 26 -21 -22 -23 -24 -25 -26 -27 -28 -29 -30
leaf_value=-0.015594059844447845 -0.02964050082988581 -0.00052525164747153094 0.04030775512643122 0.030414784517627611 0.058596901264701871 -0.0067766892180310548 0 -0.0074299411046383716 0.0090737569273427188 -0.012196393540001628 0.011078132722513633 -0.015517876562883458 -0.0069883527680576719 0.0034710741657808415 0 0.0075013868811531432 -0.0098817637668906829 0 0.03384287225515327 0.033189147692745287 0.022517496252028899 0.02715896206838701 0.019059479964058254 0.0078477994321035187 0.03238987145282364 -0.023781059741270136 0.057454567455523228 0.021808010700422407 0.018132564785992861
leaf_weight=383.8612706810236 3311.5151531100273 401.24914856255054 695.37636630237103 170.63406626880169 365.96346206963062 261.51602293550968 72.245063871145248 336.23120486736298 1246.5631835758686 2553.5079696029425 342.11561790108681 1825.3191078305244 777.23657405376434 427.19117833673954 357.1394237279892 1495.6866293698549 472.1911249756813 1094.446344986558 1313.063932493329 876.77835161983967 1213.9970333576202 150.22837422788143 455.47560250759125 719.07788093388081 742.41504119336605 3279.1938125342131 187.03026156127453 417.47384229302406 501.18484225869179
leaf_count=2339 22671 2392 3514 948 1720 1506 380 2146 6791 15859 1831 11903 4614 2614 2082 8467 2758 6336 6359 4441 6223 748 2624 4082 3842 21798 857 2164 2773
internal_value=5.84367e-05 -0.0119278 0.019381 0.00159959 0.0284785 0.0087639 0.0152329 -0.0224621 0.0214998 -0.00456416 0.0174468 -0.0183501 -0.00764309 -0.0118234 0.0206081 1.799e-05 0.00320675 0.00682684 0.0416228 0.0272364 0.0158292 0.00329974 0.00969954 3.55999e-06 0.0294298 -0.0223329 0.0371344 0.0337038 0.0108329
internal_weight=26445.9 16316 10129.9 7136.52 5439.47 4690.47 2229.97 9179.45 3573.41 4906.55 2338.73 5867.94 4049.82 2252.51 2077.22 2351.74 1967.88 1415.31 1866.06 1218.89 2460.56 1244.67 856.725 1496.31 814.66 3615.43 1500.09 1112.85 858.324
internal_count=156782 102957 53825 41825 27628 26197 12254 61132 18692 29571 12633 38461 24555 14517 11127 13564 11225 8032 8936 6272 13014 7084 5016 8696 4222 23944 7216 5678 4855
is_linear=0
shrinkage=0.0368943


Tree=10
num_leaves=30
num_cat=0
split_feature=6 57 61 60 60 73 60 62 61 57 72 66 60 6 66 3 72 66 57 57 73 66 57 6 6 28 57 66 6
split_gain=4005.84 1528.54 908.061 350.204 330.561 292.144 200.892 168.166 167.022 146.919 143.044 131.688 121.848 95.3095 86.4628 80.1043 76.8388 75.7161 66.992 66.8021 65.7746 66.9944 62.3414 57.0125 53.2893 49.1397 47.9487 45.9863 44.4881
threshold=6.5000000000000009 0.20279316391571797 0.60769230769230786 0.97058823529411764 0.74166666666666681 1.5000000000000002 0.82843137254901966 0.53589743589743599 0.82843137254901966 0.2929660667674131 0.057012350357011708 12.500000000000002 0.97058823529411764 3.5000000000000004 12.500000000000002 0.085410334346504566 0.072704488493962161 13.500000000000002 0.15727513227513229 0.12254860072634051 3.5000000000000004 12.500000000000002 0.33518640636741454 1.5000000000000002 1.5000000000000002 0.076014287578486064 0.079772727272727259 12.500000000000002 1.5000000000000002
decision_type=2 2 2 2 2 2 2 2 2 2 2 2 2 2 2 2 2 2 2 2 2 2 2 2 2 2 2 2 2
left_child=2 7 5 8 11 6 14 19 17 25 -6 -4 -9 23 -1 -15 -11 -3 -7 -2 21 -10 -13 -12 -16 -5 -8 -28 -29
right_child=1 3 4 9 10 18 26 12 20 16 13 22 -14 15 24 -17 -18 -19 -20 -21 -22 -23 -24 -25 -26 -27 27 28 -30
leaf_value=0.016120663202711136 -0.032660749834158467 -0.0012598423097155774 0.029714027145548605 -0.0041390913597206423 0.018136374938041669 -0.01338819318836184 -0.0074484111892050217 -0.019766785655402238 0.026743401644314036 0.012145022617705607 0.031132485284411173 0.0071034050457627913 -0.0003307467535744577 0.020730990402328325 -0.0086150530605767616 0.046229298245303689 0.036173176787271145 -0.01387078814352331 1.1933955110558174e-05 -0.023603229792366506 -0.0096270728560576991 0.0045595795815988804 0.019679600354980929 0.050676755945286277 0.0051922774744859734 0.01309153327785322 0.040601880019449275 0.00289143147233189 0.025672556060973045
leaf_weight=764.73032850027084 2186.5824124515057 1018.6196131259203 879.03310298919678 444.40419456362724 619.68231157958508 923.82783935964108 48.040349632501602 2313.8308300077915 233.78647422790527 361.33038108050823 389.45575970411301 1342.0733895748854 569.24210549890995 638.86850197613239 514.38837061822414 270.7276469618082 467.6694141626358 1990.7284171134233 1050.6041321903467 3195.0529195666313 310.23258790373802 1011.1709447652102 999.2124727666378 1005.6662250459194 1371.5568278878927 423.45552968978882 264.38618434965611 172.74944341182709 609.20918403565884
leaf_count=4186 15392 6124 4502 2629 3139 5781 272 15512 1294 1880 1849 7445 3575 3359 2964 1346 2385 12413 6170 21550 1829 5840 5139 4715 7748 2322 1317 890 3153
internal_value=-2.74283e-05 -0.0130237 0.0158656 0.00069492 0.0257156 0.00523129 0.0112997 -0.0234359 -0.00459112 0.0150059 0.0347726 0.0173782 -0.0160106 0.0390982 0.00568088 0.0287927 0.0261084 -0.00968271 -0.00617189 -0.0273534 0.00512538 0.00899765 0.0125956 0.0455212 0.00130004 0.00405727 0.0246165 0.0263219 0.0209655
internal_weight=26390.3 14526.1 11864.2 6261.4 6144.72 5719.49 3745.06 8264.71 4564.54 1696.86 2924.4 3220.32 2883.07 2304.72 2650.68 909.596 829 3009.35 1974.43 5381.64 1555.19 1244.96 2341.29 1395.12 1885.95 867.86 1094.39 1046.34 781.959
internal_count=156720 92745 63975 36716 31494 32481 20530 56029 27500 9216 14408 17086 19087 11269 14898 4705 4265 18537 11951 36942 8963 7134 12584 6564 10712 4951 5632 5360 4043
is_linear=0
shrinkage=0.0368943


Tree=11
num_leaves=30
num_cat=0
split_feature=6 57 61 57 72 6 29 6 9 66 66 25 64 1 72 54 54 57 72 62 29 35 57 62 66 62 57 57 66
split_gain=3720.57 1451.91 826.318 321.719 243.459 230.189 176.853 174.329 148.475 128.737 120.78 102.97 102.944 99.0651 94.4922 92.6711 77.1617 75.4472 68.7665 60.2976 60.1917 59.6177 54.8613 54.5811 51.0694 49.9576 48.3209 48.2123 45.368
threshold=6.5000000000000009 0.20279316391571797 0.60769230769230786 0.29774569402228984 0.073655102152200363 3.5000000000000004 0.17699806636772178 1.5000000000000002 34.985960591133015 12.500000000000002 13.500000000000002 4.5000000000000009 0.48529411764705882 0.054237911380768458 0.10537419498112366 2.5000000000000004 2.5000000000000004 0.13426684662103536 0.11988023952095807 0.67708333333333337 0.22795818168031542 0.40588235294117653 0.10367218987908641 0.51470588235294124 11.500000000000002 0.59411764705882364 0.074856321839080461 0.15953586718178972 12.500000000000002
decision_type=2 2 2 2 2 2 2 2 2 2 2 2 2 2 2 2 2 2 2 2 2 2 2 2 2 2 2 2 2
left_child=2 6 5 10 15 7 -2 22 14 -6 20 26 -8 27 23 -4 -10 -14 25 -12 -3 -17 -1 -5 -15 -11 -9 -7 -19
right_child=1 3 4 8 9 13 12 11 16 18 19 -13 17 24 -16 21 -18 28 -20 -21 -22 -23 -24 -25 -26 -27 -28 -29 -30
leaf_value=-0.025292037309586599 -0.030191094734228496 -0.0046828797589495742 0.025486095930107831 0.0019481209689471487 0.044107893892007005 -0.015315482240447535 -0.024322663851920945 -0.0082540374117456086 0.015386971542403455 0.015017237414936891 -0.015246765918743879 0.0027236704019409663 -0.021090363411556734 0.019795754900487017 0.047956147011785293 0.007290127549185824 -0.0032275746286973572 0.0039130326409889324 0.041114190490001229 -0.003185929938712789 0.011165886245606891 0.022296542538437113 0.0030881293807308056 0.022019361902454359 0.0013212356368420002 0.028358239580357218 0.025520472958666975 -0.0020015386398924153 -0.011236460488685106
leaf_weight=97.366366907954216 2994.1358114182949 635.94025430083275 1094.2497266083956 289.76032495498657 884.74596153199673 748.47897571325302 2405.9442208111286 47.962522357702255 438.42698884010315 736.74443472921848 1554.1194152534008 420.4585300385952 1102.6291864961386 254.1788754016161 156.33826091885567 1383.2592571526766 917.62031227350235 310.3906582146883 416.68123425543308 968.47697831690311 636.92543613910675 527.58894142508507 909.48478108644485 662.2682781368494 1093.3033502101898 1167.7229196727276 1346.9009809494019 813.58552803099155 1327.8582915365696
leaf_count=576 21099 3859 5437 1604 4297 4747 16448 278 2417 3816 9704 2238 7717 1441 805 7308 5308 2017 2088 5867 3697 2682 4978 3455 6447 5866 6962 4814 8748
internal_value=-2.63075e-05 -0.0126586 0.0151871 0.000669563 0.0245128 0.00503053 -0.0229263 0.012538 0.0110653 0.0316676 -0.00603143 0.01935 -0.0186302 -0.00218938 0.0210744 0.016764 0.0026751 -0.0135161 0.0267381 -0.0107176 0.00309699 0.0115979 7.56344e-06 0.0161791 0.00503122 0.0233683 0.0241794 -0.00854838 -0.00823409
internal_weight=26343.5 14400.8 11942.7 6259.88 6210.99 5731.72 8140.96 2822.17 2464.41 3205.89 3795.46 1815.32 5146.82 2909.55 1108.37 3005.1 1356.05 2740.88 2321.15 2522.6 1272.87 1910.85 1006.85 952.029 1347.48 1904.47 1394.86 1562.06 1638.25
internal_count=156720 92745 63975 36716 31494 32481 56029 15032 13589 16067 23127 9478 34930 17449 5864 15427 7725 18482 11770 15571 7556 9990 5554 5059 7888 9682 7240 9561 10765
is_linear=0
shrinkage=0.0368943


Tree=12
num_leaves=30
num_cat=0
split_feature=57 73 73 13 57 54 1 72 60 73 61 60 62 62 35 57 77 64 72 60 3 37 1 57 57 64 0 67 54
split_gain=3155.83 870.835 604.809 473.651 433.469 262.573 244.428 208.433 140.819 135.756 130.403 106.001 94.4995 91.5496 84.0034 80.0487 76.3369 71.0258 67.0406 66.5465 82.1283 92.3461 60.1025 59.4101 59.3551 52.3724 52.1573 47.8674 46.6727
threshold=0.20823906485671193 1.5000000000000002 1.0000000180025095e-35 0.017206290471785304 0.37763903721350539 2.5000000000000004 0.027973395931142352 0.073055315471045754 0.68990384615384626 3.5000000000000004 0.82843137254901966 0.76696832579185525 0.69615384615384623 0.65686274509803932 0.30384615384615393 0.094466316710411155 0.067816091954022953 0.3550420168067227 0.062641452115136317 0.71008403361344552 0.073622402890695507 1.0000000180025095e-35 0.079156223893065966 0.13353596757852079 0.10032467532467532 0.41421568627450983 34.500000000000007 0.073836929669224519 2.5000000000000004
decision_type=2 2 2 2 2 2 2 2 2 2 2 2 2 2 2 2 2 2 2 2 2 2 2 2 2 2 2 2 2
left_child=2 4 3 13 5 11 14 16 -5 15 17 -2 27 -1 23 -8 -7 -3 -6 -17 21 -21 -12 -4 -10 -26 -13 -9 -19
right_child=1 10 6 8 18 7 9 12 24 -11 22 26 -14 -15 -16 19 -18 28 -20 20 -22 -23 -24 -25 25 -27 -28 -29 -30
leaf_value=-0.020567654762370463 0.015504311916283528 -0.012403828437062532 -0.031261629894905482 0.00090215590050590376 0.021669309938179924 0.016554054578540846 -0.022823439726421951 0.0049530409042993391 -0.0012822344915641654 -0.019828720851467085 0.0019269665325506473 0.036490551019740934 0.026132524061331756 -0.0011187039245150496 -0.0076538302416080672 -0.01038502387927232 -2.1065295413087444e-05 0.0089299695759016157 0.040203057221254591 0.0027833914809188539 0.017579353763617991 -0.026019023995274324 0.016888937067821401 -0.021592673144233302 0.011633690021673812 0.030936994371157482 0.013145076417372333 0.018921943613387487 -0.0042516561512985114
leaf_weight=1229.1466042548418 867.4836717993021 1151.3957674652338 1896.3891938179731 1023.7163980156183 437.82677586376667 448.75073844194412 353.41837579011917 809.60993985831738 132.87021416425705 1852.0327083915472 998.77568791806698 1047.9182671904564 1104.3333353549242 482.36952716112137 406.72234904766083 1077.5196222215891 2105.1944975107908 491.37485584616661 1292.0023293197155 616.12464487552643 334.60093821585178 191.23329041898251 609.30452482402325 2215.3158074766397 371.70200781524181 559.01994420588017 193.01139916479588 645.24545548856258 1354.0512103289366
leaf_count=8569 4619 6942 13547 5729 2107 2379 2440 4461 736 12532 5580 5078 5873 3147 2741 7118 11733 2790 6040 3937 2026 1239 3215 14837 1878 2795 968 3532 8132
internal_value=-2.6349e-05 0.012354 -0.0132138 -0.000820025 0.0190581 0.0150124 -0.0184508 0.0104059 0.0109051 -0.0121666 -0.000639774 0.0260254 0.0178513 -0.0152312 -0.0245351 -0.00653746 0.00283937 -0.00522721 0.0357208 -0.00379719 0.00225573 -0.0039144 0.00776675 -0.0261407 0.0202791 0.0235717 0.0331059 0.0113429 -0.000610994
internal_weight=26298.5 13556.3 12742.2 3798.82 8951.38 7221.55 8943.36 5113.13 2087.31 4424.93 4604.9 2108.41 2559.19 1711.52 4518.43 2572.9 2553.95 2996.82 1729.83 2219.48 1141.96 807.358 1608.08 4111.71 1063.59 930.722 1240.93 1454.86 1845.43
internal_count=156720 73449 83271 22854 46790 38643 60417 27978 11138 29292 26659 10665 13866 11716 31125 16760 14112 17864 8147 14320 7202 5176 8795 28384 5409 4673 6046 7993 10922
is_linear=0
shrinkage=0.0368943


Tree=13
num_leaves=30
num_cat=0
split_feature=6 57 57 57 73 6 6 29 66 9 66 57 64 25 72 25 1 25 62 54 54 57 1 29 1 5 66 8 1
split_gain=3309.8 1300.18 708.07 306.618 283.029 201.755 173.466 156.29 148.237 129.776 126.411 102.631 91.9067 87.9959 80.6423 77.4283 72.0245 69.0815 68.251 67.4669 66.3783 62.8643 59.0457 58.6288 58.3969 59.624 52.6923 51.979 51.3308
threshold=6.5000000000000009 0.19466056898497353 0.28817260010361928 0.29774569402228984 1.5000000000000002 1.5000000000000002 2.5000000000000004 0.17699806636772178 13.500000000000002 34.985960591133015 13.500000000000002 0.15727513227513229 0.48529411764705882 3.5000000000000004 0.10537419498112366 3.5000000000000004 0.040270270270270254 4.5000000000000009 0.91987179487179505 2.5000000000000004 2.5000000000000004 0.13426684662103536 0.12838827838827838 0.22795818168031542 0.046693313953488358 0.17914438502673799 12.500000000000002 5.4841229838709689 0.052911534154535256
decision_type=2 2 2 2 2 2 2 2 2 2 2 2 2 2 2 2 2 2 2 2 2 2 2 2 2 2 2 2 2
left_child=2 7 4 10 5 20 15 -2 22 14 23 -6 -9 24 -5 28 -8 -18 -12 -11 -1 -14 27 -3 -10 -26 -17 -4 -7
right_child=1 3 8 9 11 6 16 12 13 19 18 -13 21 -15 -16 26 17 -19 -20 -21 -22 -23 -24 -25 25 -27 -28 -29 -30
leaf_value=0.012018964719997426 -0.029566851771649461 -0.004665488561560756 0.036099309662876486 0.014773000241803159 -0.012052570955387129 0.024446684647695071 0.0043300386093243475 -0.023898984914731265 0.018267600365453218 0.01399034967400239 -0.013305544922371761 0.0031069510576066128 -0.020178414465109606 0.012080733823444229 0.043761005075177467 0.035258590220312927 0.020982743500478147 0.00080407009116987627 0.0025170087578982128 -0.003324338855844548 -0.006301987039138434 -0.0080285116914920757 0.047598427712414869 0.010466861275380419 0.040664098923339324 0.016298395360706288 0.0077837437236296944 0.017873481184777947 0.046510083475932086
leaf_weight=385.7633521258831 2809.9727295339108 682.01433110237122 753.31740656495094 965.94834154844284 950.63361844420433 381.98140735924244 1251.714439034462 2229.7948273867369 775.15717770159245 445.46599431335926 2347.2877511382103 1630.2345212697983 1074.2008010745049 1085.5625250786543 161.63505129516125 139.98010109364986 1129.6122651696205 318.23357644677162 412.94443139433861 918.70746371150017 849.93082429468632 1473.6040835082531 457.86162179708481 680.55568471550941 555.18179346621037 240.93669772148132 378.06653305888176 404.61286579072475 363.54558765888214
leaf_count=1994 20516 4183 3619 5059 6075 1925 6975 15704 3869 2417 14756 9425 7717 5395 805 693 5970 1729 2503 5308 4715 9836 2083 3941 2643 1152 1942 2008 1763
internal_value=-2.69988e-05 -0.0121003 0.0141813 -0.000110039 0.00750659 0.0124671 0.0165218 -0.0225172 0.0262591 0.0100617 -0.00631426 -0.00240958 -0.0182963 0.0206234 0.0193148 0.0278984 0.011071 0.0167134 -0.0108618 0.00221044 -0.000383329 -0.0132676 0.0352902 0.00275045 0.0263261 0.0337225 0.0159152 0.0300315 0.0357593
internal_weight=26254.5 14202.1 12052.3 6614.56 7779.7 5198.83 3963.13 7587.57 4272.63 2491.76 4122.8 2580.87 4777.6 2656.84 1127.58 1263.57 2699.56 1447.85 2760.23 1364.17 1235.69 2547.8 1615.79 1362.57 1571.28 796.118 518.047 1157.93 745.527
internal_count=156720 92745 63975 38972 43206 27706 20997 53773 20769 13589 25383 15500 33257 13059 5864 6323 14674 7699 17259 7725 6709 17553 7710 8124 7664 3795 2635 5627 3688
is_linear=0
shrinkage=0.0368943


Tree=14
num_leaves=30
num_cat=0
split_feature=6 57 61 60 60 73 29 60 61 29 72 60 57 71 57 6 71 64 72 57 64 73 55 8 74 62 6 6 35
split_gain=3076.64 1235.31 654.79 302.529 290.953 203.419 152.29 143.111 142.284 126.026 122.533 104.933 104.826 80.8145 69.2143 64.3382 61.7461 60.0795 59.229 58.2877 58.1378 49.7749 49.4859 49.2934 48.0078 45.1771 44.4998 64.8665 42.8598
threshold=6.5000000000000009 0.19466056898497353 0.59411764705882364 0.97058823529411764 0.74166666666666681 1.5000000000000002 0.17699806636772178 0.82843137254901966 0.82843137254901966 0.23260437580862495 0.057012350357011708 0.97058823529411764 0.33705761316872435 0.043252483550509611 0.099465963365349214 10.500000000000002 0.056258901724956407 0.26969696969696971 0.072704488493962161 0.11410488245931276 0.60769230769230786 3.5000000000000004 1.5000000000000002 5.4841229838709689 -1.2499999999999998 0.59411764705882364 4.5000000000000009 1.5000000000000002 0.31414473684210531
decision_type=2 2 2 2 2 2 2 2 2 2 2 2 2 2 2 2 2 2 2 2 2 2 2 2 2 2 2 2 2
left_child=2 6 5 8 12 7 -2 14 15 -5 -6 19 26 -12 -1 24 -10 -16 -11 -8 -15 -18 -7 -14 -3 -13 27 -4 -21
right_child=1 3 4 9 10 22 11 -9 16 18 13 25 23 20 17 -17 21 -19 -20 28 -22 -23 -24 -25 -26 -27 -28 -29 -30
leaf_value=-0.013685045959669314 -0.029062678476779447 0.0028628998750837506 -0.0023158522868092519 0.00071208606020271056 0.014668578191355006 0.00055774699469390897 -0.028211019570914531 0.020623579864525992 -0.008369863474782701 0.0097959565449025829 0.01052451077162085 -0.014425133663086714 0.026194245289305931 0.028474806177949657 -0.0033670972773841221 -0.014901791205142954 0.011900147919909825 0.0099853291932757576 0.028503283776344486 -0.019450460809398901 0.041731719371018626 -0.0068177549766182044 -0.011353130805689633 0.010966794039697915 -0.0095703571864608154 0.0015706673030016739 0 0.016183136126665443 -0.0058776241526824393
leaf_weight=250.61157707870007 2754.3930154889822 705.42216140031815 312.95057205855846 737.44526150822639 671.93734090030193 828.16669614613056 1076.2482285052538 1046.8025911450386 392.50778198242188 450.74416667222977 226.93693695962429 454.58706329762936 999.80489660799503 1132.328074619174 600.474410161376 1545.9389008283615 972.63769714534283 1665.7761531919241 611.28114725649357 2303.8705153614283 1158.874025374651 221.65166893601418 1012.9451076388359 505.68444240093231 972.07451905310154 457.23100501298904 638.4538322687149 1067.229205518961 428.97045658528805
leaf_count=1527 20516 4364 1677 4231 3320 5070 7969 5245 2285 2362 1105 3153 4842 5367 3329 9786 5465 9119 3087 16211 5391 1310 6285 2518 6082 2943 3654 5526 2981
internal_value=-2.3675e-05 -0.011756 0.0135937 -0.000102094 0.0212906 0.00398061 -0.0220243 0.00914362 -0.00496193 0.0127465 0.0294227 -0.0178429 0.0138336 0.0332338 0.00424922 -0.00942801 0.00397921 0.00635491 0.0208564 -0.0205577 0.0353593 0.00823432 -0.00589595 0.0212801 -0.00422452 -0.00621419 0.00813116 0.011844 -0.0174138
internal_weight=26204 14085 12119 6609.7 6714.2 5404.78 7475.3 3563.66 4810.23 1799.47 3190.08 4720.91 3524.12 2518.14 2516.86 3223.44 1586.8 2266.25 1062.03 3809.09 2291.2 1194.29 1841.11 1505.49 1677.5 911.818 2018.63 1380.18 2732.84
internal_count=156720 92745 63975 38972 33400 30575 53773 19220 29292 9680 15183 33257 18217 11863 13975 20232 9060 12448 5449 27161 10758 6775 11355 7360 10446 6096 10857 7203 19192
is_linear=0
shrinkage=0.0368943


Tree=15
num_leaves=30
num_cat=0
split_feature=6 57 57 60 73 62 6 6 60 60 66 57 6 62 72 57 57 55 54 60 57 71 14 6 6 57 64 57 3
split_gain=2920.81 1165.11 618.76 335.96 267.736 234.477 203.711 147.382 147.048 140.009 128.812 98.922 97.7466 91.1562 82.3945 75.1621 75.1127 69.1052 63.3883 62.2974 61.2888 56.8045 56.6104 59.523 65.4847 55.2169 51.0984 48.6971 47.639
threshold=6.5000000000000009 0.23448949334245717 0.31191037735849064 0.88562091503267981 1.5000000000000002 0.36038961038961043 4.5000000000000009 1.5000000000000002 0.97058823529411764 0.97058823529411764 11.500000000000002 0.4950681677339393 2.5000000000000004 0.90454545454545465 0.077985429204941364 0.17737203495630458 0.15557765988800468 1.5000000000000002 2.5000000000000004 0.10555555555555557 0.11980861244019136 0.056258901724956407 0.16064516129032258 1.5000000000000002 2.5000000000000004 0.35970123022847106 0.65686274509803932 0.12546296296296297 0.073622402890695507
decision_type=2 2 2 2 2 2 2 2 2 2 2 2 2 2 2 2 2 2 2 2 2 2 2 2 2 2 2 2 2
left_child=2 5 3 6 10 20 7 26 11 15 21 19 -9 25 28 -7 -8 27 -6 -4 -2 -3 -21 -24 -25 -12 -1 -14 -5
right_child=1 4 8 14 18 9 16 12 -10 -11 13 -13 17 -15 -16 -17 -18 -19 -20 22 -22 -23 23 24 -26 -27 -28 -29 -30
leaf_value=-0.0088416603089441839 -0.032417225929795256 1.280585861817087e-05 -0.00072683478536642726 0.0092407056886987995 0.003056447489711673 -0.020719608515534466 -0.014406820054456201 0.021433715003719545 0.044623866419720624 -0.0015426556275616417 -0.0017860125141706748 0.037445054928079494 -0.0043237496947321598 0.019237500431924737 0.032278999032213818 -0.0092176307521924499 -0.00011844505350037111 0.0011476120744946298 -0.010804915099634075 -0.0035919865994169377 -0.022270084059429259 0.030989495630991178 0.009194913182105427 0.037108170243899466 0.020418979646122028 0.014406771705554941 0.0080859875823345133 0.016899009659505922 0.027762776759079993
leaf_weight=734.29163046181202 1519.2597569227219 112.97812928259373 174.52585040032864 711.47841380536556 592.93920837342739 2660.8937465697527 755.71752052009106 1096.3324049413204 512.50277481973171 1015.4413308054209 1312.7048900872469 541.20268513262272 151.17319975793362 531.50191274285316 700.21297684311867 1222.1444292217493 1552.6827598363161 1149.8045706301928 1587.8575205802917 106.05359327793121 2550.9563637971878 482.2144905179739 449.94782374799252 503.40526583790779 1360.3681365996599 356.33966183662415 345.27450829744339 1043.2783451974392 293.12664221227169
leaf_count=4085 11795 623 887 3673 3375 19327 4961 5486 2233 6552 7654 2429 899 2809 3406 8157 9065 6330 9667 531 18330 2524 2179 2333 6674 1800 1886 5524 1423
internal_value=-6.25155e-05 -0.0115977 0.0131249 0.00764374 0.00268004 -0.0195403 0.00393978 0.00850718 0.0258564 -0.0139813 0.0102594 0.0226458 0.0122471 0.00598134 0.0222934 -0.0171727 -0.00491146 0.00781915 -0.00694143 0.0194016 -0.0261497 0.0255171 0.0209387 0.0221602 0.0251396 0.00158251 -0.00321908 0.0140292 0.0149809
internal_weight=26126.6 13945.2 12181.4 8533.37 4976.54 8968.7 6828.55 4520.15 3648.01 4898.48 2795.74 3135.5 3440.59 2200.55 1704.82 3883.04 2308.4 2344.26 2180.8 2594.3 4070.22 595.193 2419.77 2313.72 1863.77 1669.04 1079.57 1194.45 1004.61
internal_count=156617 92613 64004 46738 28452 64161 38236 24210 17266 34036 15410 15033 18239 12263 8502 27484 14026 12753 13042 12604 30125 3147 11717 11186 9007 9454 5971 6423 5096
is_linear=0
shrinkage=0.0368943


Tree=16
num_leaves=30
num_cat=0
split_feature=6 57 57 73 60 57 57 29 60 64 66 71 57 1 71 60 6 66 57 3 60 73 6 6 3 64 72 54 57
split_gain=2715.13 1108.23 565.327 318.477 307.888 191.263 173.681 138.636 133.446 125.398 104.555 94.3146 89.5329 84.3607 78.9183 73.9008 73.453 66.7919 64.9504 60.4451 57.1886 55.6926 54.8116 50.9983 50.3396 50.166 50.4827 49.5674 45.3049
threshold=6.5000000000000009 0.18761973180076627 0.31191037735849064 1.5000000000000002 0.88562091503267981 0.14492107069320517 0.32408387034721559 0.18888699214749063 0.97058823529411764 0.48529411764705882 11.500000000000002 0.076258760375764165 0.4950681677339393 0.087228260869565213 0.07680962105740867 0.87083333333333346 4.5000000000000009 11.500000000000002 0.063164893617021267 0.065942028985507203 0.10555555555555557 3.5000000000000004 1.5000000000000002 9.5000000000000018 0.09646401985111662 0.44097222222222227 0.05671360727957496 2.5000000000000004 0.52291105121293813
decision_type=2 2 2 2 2 2 2 2 2 2 2 2 2 2 2 2 2 2 2 2 2 2 2 2 2 2 2 2 2
left_child=2 7 4 6 5 18 11 -2 12 -7 -11 -3 20 23 24 -9 22 -8 -1 -17 -4 -15 -12 -5 -6 -22 -27 -20 -19
right_child=1 3 8 13 14 9 17 15 -10 10 16 -13 -14 21 -16 19 -18 28 27 -21 25 -23 -24 -25 -26 26 -28 -29 -30
leaf_value=-0.030826995778175197 -0.027364535370432284 -0.005749985236017139 -0.00070109969490846286 -0.0069464963628988081 0.0079349229941272185 0.00079834926941574737 0.033307841805655825 -0.019960460795892851 0.042483062832346534 0.027869060838829552 0 0.0089830925411446359 0.035651114146092434 0.0063157398506776714 0.030129764206596545 -0.011033187814572338 -0.00022454946264246841 0.0090198313058146209 0.0097963993177036159 0.017059590624078518 0.011782218561067932 -0.010591637747514019 0.016732011847937111 -0.018851766636061501 0.02833083535600113 0.010086487824857056 0.027313773683685698 -0.0080196080840910684 0.033123322295891794
leaf_weight=143.96572959423065 3260.8230349496007 1361.5454991161823 174.46814696490765 988.08150614798069 696.02471439540386 2376.1171865463257 288.74046117067337 2600.8862010166049 518.63608601689339 496.53921554982662 324.8313681781292 1033.1782900691032 547.62657636404037 619.8572873622179 786.30393561720848 936.59551475197077 761.82298497855663 893.26283690333366 244.15764755010605 106.71146689355373 802.50620305538177 451.41125354170799 1307.1117948591709 1163.2556293010712 237.65660545229912 345.21000364422798 1291.7914202809334 1184.3287753760815 128.19577290117741
leaf_count=928 25078 8325 887 6189 3547 13070 1429 19129 2233 2571 1774 6145 2429 3639 3823 6420 4482 4703 1412 677 3910 2779 6733 7517 1132 1685 6122 7266 583
internal_value=-6.08565e-05 -0.0112661 0.0125854 -0.000805643 0.00734187 0.00378681 0.00653417 -0.0217208 0.0246921 0.00717749 0.0123369 0.000524751 0.0216354 -0.009306 0.0212954 -0.0165779 0.00896824 0.0173073 -0.00742021 -0.00788105 0.018547 -0.00063108 0.0133743 -0.0135147 0.0134923 0.0200083 0.0238573 -0.00480029 0.0124183
internal_weight=26071.6 13832.5 12239.1 6927.53 8558.86 6838.87 3704.92 6905.02 3680.24 5266.42 2890.31 2394.72 3161.6 3222.61 1719.99 3644.19 2393.77 1310.2 1572.45 1043.31 2613.98 1071.27 1631.94 2151.34 933.681 2439.51 1637 1428.49 1021.46
internal_count=156617 92613 64004 41309 46738 38236 21185 51304 17266 28630 15560 14470 15033 20124 8502 26226 12989 6715 9606 7097 12604 6418 8507 13706 4679 11717 7807 8678 5286
is_linear=0
shrinkage=0.0368943


Tree=17
num_leaves=30
num_cat=0
split_feature=6 57 57 60 66 64 6 66 57 64 62 29 60 3 72 71 29 60 64 60 6 57 6 1 26 66 1 60 72
split_gain=2535.05 1317.47 377.026 343.97 187.786 180.06 160.118 119.022 102.356 98.9255 97.7268 96.7095 95.1313 102.629 93.4066 83.6848 78.1704 74.5689 70.1791 64.5932 63.9435 63.1872 60.7624 57.9574 50.208 46.9124 44.1393 57.0409 43.464
threshold=4.5000000000000009 0.17737203495630458 0.31927419354838715 0.65686274509803932 13.500000000000002 0.53589743589743599 8.5000000000000018 10.500000000000002 0.19344086021505377 0.36931818181818182 0.32291666666666669 0.18888699214749063 0.83974358974358987 0.049390243902439006 0.072704488493962161 0.050446323702137655 0.22253968253968254 0.91287878787878796 0.24264705882352941 0.93541666666666667 1.5000000000000002 0.1178122934567085 9.5000000000000018 0.055867665418227151 447.00000000000006 9.5000000000000018 0.081725417439703116 0.095454545454545472 0.038567785805354811
decision_type=2 2 2 2 2 2 2 2 2 2 2 2 2 2 2 2 2 2 2 2 2 2 2 2 2 2 2 2 2
left_child=3 6 4 8 9 15 23 -4 -1 -3 -9 -8 22 24 -7 -5 -11 -12 -10 -13 -17 -16 -6 -2 -14 -20 27 -27 -22
right_child=1 2 7 5 12 14 11 10 18 16 17 19 13 -15 21 20 -18 -19 25 -21 28 -23 -24 -25 -26 26 -28 -29 -30
leaf_value=-0.0011590444073883406 -0.016610178029351674 -0.0059415065411089745 0.030641182843741017 0.00014464713999815985 -0.0069418170034665902 0.02071181113493463 -0.02899078808108459 -0.007507929949481529 -0.0010249584480280126 0.00068942416456650247 0.0065739410185691122 -0.021558955627636722 -0.016553320161322979 0.019809951185088204 0.00022503510945884312 0.006020665862319299 0.017987017976675186 0.02143250139077724 0.032551520440071667 -0.0072213792582716454 0.0011712929001788136 0.037402478744606407 -0.017976921842625102 -0.0049487370586294649 -0.00067946886974999362 -0.00025801823673206445 0 0.018141254918351835 0.02456675996807035
leaf_weight=1183.217326387763 1516.9741427376866 754.59563581645489 400.78945904970169 451.18616953492165 1531.6432418078184 1137.2423959225416 2438.6847222521901 402.77602376043797 443.34535697102547 677.31379246711731 1370.4273552894592 2009.2964391112328 378.32634782791138 259.93913917243481 77.126132667064667 481.11953723430634 811.2289949208498 745.99445992708206 193.40302136540413 614.86406020820141 139.82173077762127 1416.8762887716293 1379.2680625170469 1048.7206502109766 1031.444539681077 249.77548617124557 294.305385440588 1324.9094555824995 1251.7666468024254
leaf_count=6737 10664 4617 1991 2267 9552 5467 19322 2212 2292 4154 7417 15078 2307 1457 422 2376 4585 3598 925 4182 701 6484 9304 6984 6154 1287 1490 6602 5989
internal_value=-5.80932e-05 -0.00818955 0.000781046 0.0162541 -0.00394356 0.0226226 -0.0196671 0.0118803 0.00762074 0.00473486 0.00874919 -0.0235197 -0.00824004 -0.0010739 0.0293226 0.0148924 0.0102904 0.0119545 0.0118438 -0.0183029 0.0183219 0.0356322 -0.012268 -0.0119474 -0.0051383 0.0147075 0.0126545 0.0150988 0.0223816
internal_weight=26016.4 17372.3 9743.75 8644.09 6823.76 4955.14 7628.54 2919.99 3688.96 2243.14 2519.2 5062.85 4580.62 1669.71 2631.24 2323.89 1488.54 2116.42 2505.74 2624.16 1872.71 1494 2910.91 2565.69 1409.77 2062.39 1868.99 1574.68 1391.59
internal_count=156617 113578 57348 43039 42130 23706 56230 15218 19333 13356 13227 38582 28774 9918 12373 11333 8739 11015 12596 19260 9066 6906 18856 17648 8461 10304 9379 7889 6690
is_linear=0
shrinkage=0.0368943


Tree=18
num_leaves=30
num_cat=0
split_feature=6 57 57 60 57 60 57 6 29 60 6 66 64 57 6 72 73 29 71 66 55 55 60 71 62 6 6 64 14
split_gain=2367.78 998.246 489.188 269.484 231.906 229.485 170.118 144.165 130.056 117.279 110.829 106.523 92.012 81.3857 75.2096 71.7908 69.4033 66.6209 65.1639 58.8556 58.2827 50.7113 50.4407 50.333 49.4833 49.2975 58.1301 42.5698 41.4951
threshold=6.5000000000000009 0.24453882927468171 0.31191037735849064 0.88562091503267981 0.13536417773705908 0.97058823529411764 0.10582306830907051 4.5000000000000009 0.17699806636772178 0.97058823529411764 1.5000000000000002 12.500000000000002 0.31009615384615391 0.43198001068792702 2.5000000000000004 0.060147237401335707 1.5000000000000002 0.21555521439263228 0.073626919245133524 14.500000000000002 1.5000000000000002 -1.0000000180025095e-35 0.10555555555555557 0.074852129741380655 0.41421568627450983 1.5000000000000002 2.5000000000000004 0.65686274509803932 0.16196343402225752
decision_type=2 2 2 2 2 2 2 2 2 2 2 2 2 2 2 2 2 2 2 2 2 2 2 2 2 2 2 2 2
left_child=2 4 3 6 24 12 -1 10 -6 13 27 -10 -3 22 -12 -5 -13 -14 -7 -19 -16 -9 -4 -17 -2 -24 -27 -8 -28
right_child=1 5 9 15 8 18 7 21 11 -11 14 16 17 -15 20 23 -18 19 -20 -21 -22 -23 25 -25 -26 26 28 -29 -30
leaf_value=-0.01447974776205694 -0.02935477249612304 -0.011575442310566609 -0.0029561013614846851 0.0062447249698765282 -0.022414873961528421 0.006386304900293926 -0.0068624152184774221 0.0052672188568639606 0.001838697148588865 0.039373024287555236 0.02086690436847841 -0.006378348299971099 -0.0063038434928452264 0.029910034905656482 0.014290085679592272 0.015913469247939904 -0.017529994783864709 0.015197956019243302 0.023487752595494706 7.2402591619281413e-05 0.0019037782559589791 -0.0069175321677826165 0.0052815982878442634 0.031761489295512903 -0.01951290295702755 0.031900421237896423 -0.0097386165614755677 0.0091776599193862714 0.017430356086436775
leaf_weight=642.53473062813282 2009.268477268517 945.1082139313221 155.83562959730625 448.46248051524162 1499.6871463507414 584.79253481328487 665.85352843999863 687.70565384626389 856.75770454108715 526.97850416600704 1037.8257425576448 1474.1484032273293 808.85163687169552 869.03960956633091 1123.1822575479746 641.33927707374096 1780.794176839292 634.6864627301693 750.66508509218693 835.7354002892971 1039.8903419971466 1338.6655805110931 412.82446330785751 652.87192772328854 1444.9343451559544 468.44254726171494 67.798005953431129 327.92055988311768 1230.0913729667664
leaf_count=4114 16379 5718 797 2270 11183 3069 3670 4084 5630 2233 5044 9910 4910 3834 5864 3151 12582 3559 3699 4895 5593 8115 1987 3081 11079 2128 341 1752 5946
internal_value=-5.81917e-05 -0.0106662 0.0116398 0.00675966 -0.0177488 0.00337329 0.00342525 0.00532008 -0.0130184 0.0228127 0.00923111 -0.00951348 -0.00189971 0.0199577 0.0125742 0.0197173 -0.0125643 0.00203892 0.0162158 0.00677782 0.00845352 -0.0026752 0.0160993 0.0241753 -0.025338 0.0175628 0.0202877 -0.00133607 0.0158126
internal_weight=25962.7 13625.4 12337.3 8606.25 9065.59 4559.84 6863.58 6221.04 5611.39 3731.01 4194.67 4111.7 3224.38 3204.03 3200.9 1742.67 3254.94 2279.27 1335.46 1470.42 2163.07 2026.37 2334.99 1294.21 3454.2 2179.16 1766.33 993.774 1297.89
internal_count=156617 92613 64004 46738 66763 25850 38236 34122 39305 17266 21923 28122 19082 15033 16501 8502 22492 13364 6768 8454 11457 12199 11199 6232 27458 10402 8415 5422 6287
is_linear=0
shrinkage=0.0368943


Tree=19
num_leaves=30
num_cat=0
split_feature=61 73 73 14 66 1 35 61 3 73 72 35 62 66 25 66 64 60 72 64 5 60 3 1 60 62 62 64 70
split_gain=1708.77 638.908 474.766 320.784 305.424 224.538 217.102 173.491 127.244 120.028 88.9828 88.8889 85.2812 85.2682 81.5488 80.0001 79.3953 75.8448 72.863 65.2853 63.1775 59.4265 70.0361 53.8931 53.0114 49.1722 47.676 45.6683 44.8914
threshold=0.53589743589743599 1.5000000000000002 1.0000000180025095e-35 0.14987520798668888 11.500000000000002 0.043668954996186109 0.40588235294117653 0.80625000000000013 0.064172958133150257 5.5000000000000009 0.072704488493962161 0.31414473684210531 0.69615384615384623 13.500000000000002 3.5000000000000004 10.500000000000002 0.29705882352941176 0.76696832579185525 0.11778579356270812 0.24264705882352941 0.067816091954022953 0.79285714285714304 0.065942028985507203 0.059173669467787106 0.75735294117647067 0.32291666666666669 0.37980769230769235 0.48529411764705882 1.0000000180025095e-35
decision_type=2 2 2 2 2 2 2 2 2 2 2 2 2 2 2 2 2 2 2 2 2 2 2 2 2 2 2 2 2
left_child=2 4 3 15 19 11 7 18 12 16 -9 27 28 -5 -10 -1 -7 -8 23 -2 -15 -18 -23 -6 -12 -21 -17 -4 -3
right_child=1 8 5 13 6 9 17 10 14 -11 24 -13 -14 20 -16 26 21 -19 -20 25 -22 22 -24 -25 -26 -27 -28 -29 -30
leaf_value=0.0093248920531356257 0.0097981914324705346 -0.0039037814386033119 -0.025945724326627041 0.018778419764130874 -0.0052478815104767254 -0.012585693982935372 0.014662518040080161 0.0065369134038933954 0.02688883917854535 -0.020672772713091203 0.010900613217230492 -0.0050013023347218093 0.0018099719672508246 0.011543698745339899 0.0023707324479068778 -0.021965531281164869 -0.0059395223466954077 0.029555966833224024 0.022152694926869977 0.014750873469097878 -0.0031608056641046021 -0.00070301690658795813 0.020820377057982408 0.0067758678998700401 0.026593410687610224 0.035610763210085612 -0.0081127622530136959 -0.017233636191551344 -0.014754955923859007
leaf_weight=200.87778563052416 238.35891500860453 1048.0084846019745 2307.371562987566 831.35224729776382 1592.893427297473 1142.5636685192585 1128.3779626190662 1247.4900290891528 270.91085951775312 846.7156964763999 561.813944876194 487.71596487611532 1364.6266010850668 757.89093732833862 628.30137956142426 691.68229079991579 1121.3038361221552 949.32826118171215 188.03806643188 233.38007896393538 793.01314878463745 543.490438349545 308.77831792831421 728.96645291894674 827.20430359244347 1172.8368214890361 813.03529880195856 1696.417778134346 1182.0721661150455
leaf_count=1292 1187 6450 17357 4176 9468 7899 5712 6300 1452 6120 2851 3405 7945 3829 3536 5291 7678 4325 1020 1185 4289 3607 1821 3846 3867 5501 5523 12354 7331
internal_value=-5.61728e-05 0.00911394 -0.00984264 0.000430766 0.0148567 -0.0148319 0.0115248 0.00738413 -0.0021769 -0.00832256 0.013985 -0.0205103 -0.00532136 0.00921672 0.0101142 -0.0117072 -0.00486735 0.0216314 0.000350321 0.0292738 0.00390534 -0.000268776 0.00693579 -0.00137483 0.0204684 0.0323722 -0.0146795 -0.0223369 -0.00977304
internal_weight=25904.8 13362.6 12542.2 4087.85 8868.69 8454.36 7224.11 5146.41 4493.92 3962.85 2636.51 4491.51 3594.71 2382.26 899.212 1705.6 3116.14 2077.71 2509.9 1644.58 1550.9 1973.57 852.269 2321.86 1389.02 1406.22 1504.72 4003.79 2230.08
internal_count=156617 71976 84641 24400 45262 60241 37389 27352 26714 27125 13018 33116 21726 12294 4988 12106 21005 10037 14334 7873 8118 13106 5428 13314 6718 6686 10814 29711 13781
is_linear=0
shrinkage=0.0368943


Tree=20
num_leaves=30
num_cat=0
split_feature=6 32 60 60 61 62 3 61 62 6 6 6 60 26 25 5 6 72 6 66 1 66 66 8 66 55 66 8 25
split_gain=2143.8 776.865 424.55 244.582 226.563 171.166 152.35 122.114 113.81 109.169 101.51 88.2617 86.6078 81.8962 71.064 80.4194 69.0642 63.4718 61.4223 58.0809 55.3788 53.3207 52.6235 44.0017 43.8922 41.0084 40.6424 39.7695 38.7471
threshold=6.5000000000000009 0.19657496988771031 0.81534090909090928 0.97058823529411764 0.76696832579185525 0.3550420168067227 0.077935222672064763 0.81534090909090928 0.68990384615384626 4.5000000000000009 3.5000000000000004 1.5000000000000002 0.97058823529411764 457.00000000000006 4.5000000000000009 0.19139194139194138 1.5000000000000002 0.087058010332921418 2.5000000000000004 11.500000000000002 0.041960093896713561 11.500000000000002 16.500000000000004 4.8585714285714294 14.500000000000002 -1.0000000180025095e-35 9.5000000000000018 6.3879074017666779 4.5000000000000009
decision_type=2 2 2 2 2 2 2 2 2 2 2 2 2 2 2 2 2 2 2 2 2 2 2 2 2 2 2 2 2
left_child=2 5 4 7 9 -2 10 24 -5 11 16 27 20 -12 15 -8 -4 26 -13 -17 -7 -9 -18 -19 -3 -11 -6 -1 -20
right_child=1 3 6 8 17 12 14 21 -10 25 13 18 -14 -15 -16 19 22 23 28 -21 -22 -23 -24 -25 -26 -27 -28 -29 -30
leaf_value=0.00062023063305304753 -0.024958985161600111 -0.0047520242758509199 0.0058988980305203463 0.0013424631506570414 0.031997131701567413 -0.019810706650883941 0.043338911048973763 0.018970358215573073 0.019987893785010057 0.0017577763148211526 -0.0050319366234137268 0.017330884616623125 -0.0017177168726394544 0.0141577629145799 0.01082008809777121 0.0402081757052715 0.028866895680923807 0.031031684793399138 0.0082863092980301443 0.01326941227922665 -0.0089439475506516014 -0.00010972117413978664 0 0.010892568949334519 -0.014241795460013022 -0.0098751914720533775 0.0094957628748456018 -0.015448787976961944 -0.0036034725253157431
leaf_weight=645.26554165780544 3224.0581291392446 1298.9185369536281 318.4074492007494 946.39623446017504 121.5769769102335 1941.984748840332 656.89563874900341 220.76574084162712 884.48270207643509 589.79893216490746 439.64836673438549 815.84911765158176 761.63532374054193 867.07507710158825 249.12790864706039 181.34880599379539 1031.9884782582521 472.34508326649666 1264.7955692410469 379.39834116399288 1105.4888054728508 1491.8436736911535 99.98642298579216 283.55446529388428 1584.8840135633945 1171.7741276174784 1999.0115775763988 289.33213137090206 495.63064546883106
leaf_count=3510 26044 8161 1473 5328 551 14971 2947 1179 4392 3600 2395 4043 5164 4567 1146 787 4563 2208 6893 1713 8117 8658 451 1365 10580 7418 9756 1667 2759
internal_value=2.54602e-05 -0.0101541 0.0111165 -0.000845285 0.00615172 -0.0186234 0.0206236 -0.00541741 0.0104991 0.00155815 0.0153022 0.00534761 -0.0131761 0.0075467 0.0303843 0.0341451 0.0220874 0.0144784 0.00889232 0.0226728 -0.0159621 0.00228198 0.0264027 0.0238931 -0.0100584 -0.00586776 0.0109678 -0.00419367 0.00481847
internal_weight=25833.3 13460.5 12372.8 6427.29 8148.93 7033.17 4223.88 4596.41 1830.88 5272.45 2757.11 3510.87 3809.11 1306.72 1466.77 1217.64 1450.38 2876.49 2576.28 560.747 3047.47 1712.61 1131.97 755.9 2883.8 1761.57 2120.59 934.598 1760.43
internal_count=156406 92594 63812 38298 43770 54296 20042 28578 9720 29890 13449 18872 28252 6962 6593 5447 6487 13880 13695 2500 23088 9837 5014 3573 18741 11018 10307 5177 9652
is_linear=0
shrinkage=0.0368943


Tree=21
num_leaves=30
num_cat=0
split_feature=57 73 35 66 57 61 73 73 72 1 64 54 72 57 60 60 62 1 77 3 71 62 8 57 64 60 26 57 62
split_gain=1753.54 547.711 442.347 261.111 235.855 233.845 148.017 135.929 125.346 105.081 97.7425 92.3275 81.2906 74.353 73.9135 62.5417 60.9777 57.3236 56.0691 52.8226 51.9228 48.9328 48.798 45.8596 46.2301 45.4148 45.041 41.4757 40.6293
threshold=0.19973753280839898 1.5000000000000002 0.31414473684210531 9.5000000000000018 0.11323124535278632 0.88562091503267981 1.5000000000000002 1.5000000000000002 0.083435708435708411 0.040956108470785561 0.29705882352941176 2.5000000000000004 0.042933947772657403 0.063164893617021267 0.74166666666666681 0.74166666666666681 0.42261904761904762 0.027402402402402354 0.072056277443757061 0.064172958133150257 0.061792032582410512 0.74166666666666681 5.1827458256029688 0.09024873431653091 0.20714285714285713 0.74166666666666681 449.00000000000006 0.41615541922290394 0.55050505050505061
decision_type=2 2 2 2 2 2 2 2 2 2 2 2 2 2 2 2 2 2 2 2 2 2 2 2 2 2 2 2 2
left_child=2 3 4 21 13 8 9 23 11 16 -3 -5 -7 -1 27 -14 -6 -8 -13 26 -10 -2 -11 -4 -25 -9 -16 -12 -20
right_child=1 10 7 5 6 12 17 25 20 22 14 18 15 -15 19 -17 -18 -19 28 -21 -22 -23 -24 24 -26 -27 -28 -29 -30
leaf_value=-0.035787054323465246 0.024064765049134827 -0.0095474435373805282 -0.011789172264685266 0.012484595672770471 -0.016164767649368351 0.0013618864836244444 -0.021137928441671394 -0.013744762387972538 0.0037546680791541399 0.01979150790836378 -0.0039704189596617033 0.010990301020593061 0.015157968695904375 -0.020075826379560392 -0.0094961171119037312 0.027062947206415142 -0.0032944369737302843 -0.010917518294208966 -0.0076071796986445029 0.019328306176384622 0.018770123489814702 0.04445773309128246 0.00030995710105308336 -6.719089084560773e-05 0.016904707526568415 0.0058901759493327236 0.0085740041551532233 0.016540485666722553 0.0019714700062768726
leaf_weight=584.28929609060287 482.73555609583855 1473.4047299772501 93.819090932607651 1096.7368921339512 956.20595423132181 315.40359456837177 1594.1095309257507 543.53473860025406 458.1650447845459 233.29155450314283 1930.3737439885736 506.35315641760826 1227.7113307118416 2146.8267227634788 251.64243429899216 1534.6852979212999 1161.6440168991685 1698.5555467754602 1115.8732248097658 426.77431127429008 1379.3249832093716 358.65010960400105 742.36487290263176 247.94117567688227 995.02159728854895 205.13910115510225 635.91750602424145 135.63765050470829 1246.1926685720682
leaf_count=4680 2365 8941 582 5398 7033 1530 12086 3996 2438 1280 11642 2617 5903 16822 1467 6865 7752 12119 6365 2213 7032 1629 4439 1422 5412 1402 3537 663 6776
internal_value=2.54501e-05 0.00846828 -0.0109392 0.0135216 -0.0144491 0.0116086 -0.0104926 0.00430235 0.00717938 -0.00458877 -0.00161389 0.00340952 0.0198617 -0.0235821 0.00179209 0.0218905 -0.00923274 -0.0159578 -4.82354e-06 0.00864883 0.015164 0.0332486 0.00527173 0.0113999 0.0133653 -0.00808096 0.00318631 -0.0024799 -0.0024719
internal_weight=25778.3 14575.6 11202.7 9721.83 9117.29 8880.45 6386.17 2085.46 5802.65 3093.51 4853.75 3965.16 3077.8 2731.12 3380.35 2762.4 2117.85 3292.67 2868.42 1314.33 1837.49 841.386 975.656 1336.78 1242.96 748.674 887.56 2066.01 2362.07
internal_count=156406 77381 79025 48918 66211 44924 44709 12814 30626 20504 28463 21156 14298 21502 19522 12768 14785 24205 15758 7217 9470 3994 5719 7416 6834 5398 5004 12305 13141
is_linear=0
shrinkage=0.0368943


Tree=22
num_leaves=30
num_cat=0
split_feature=57 57 57 64 54 66 69 72 61 71 57 72 54 54 0 1 25 64 69 66 71 72 66 14 66 72 1 25 66
split_gain=1634.11 427.868 327.779 280.055 245.602 232.239 137.155 115.995 113.093 82.718 77.7572 67.2105 66.306 63.6557 63.1008 54.6752 53.1656 51.2933 49.3776 45.4658 45.284 44.2784 44.1463 42.2139 40.8085 37.3303 35.1551 34.6641 34.3084
threshold=0.19919989839979682 0.4249051471114611 0.10152313330279432 0.26969696969696971 2.5000000000000004 14.500000000000002 1.0000000180025095e-35 0.074940933663108819 0.78174603174603186 0.056258901724956407 0.048199767711962806 0.032433380084151454 2.5000000000000004 2.5000000000000004 42.500000000000007 0.071796759941089819 4.5000000000000009 0.20714285714285713 1.0000000180025095e-35 9.5000000000000018 0.071269576130049125 0.10397117333533516 12.500000000000002 0.17887685754235363 11.500000000000002 0.074906707621010607 0.027402402402402354 3.5000000000000004 10.500000000000002
decision_type=2 2 2 2 2 2 2 2 2 2 2 2 2 2 2 2 2 2 2 2 2 2 2 2 2 2 2 2 2
left_child=2 3 10 12 14 7 9 15 20 26 -1 -3 -2 27 18 -5 28 -8 -4 -13 -7 -15 -19 -17 -11 -22 -6 -10 -9
right_child=1 11 4 5 6 8 17 16 13 24 -12 19 -14 21 -16 23 -18 22 -20 -21 25 -23 -24 -25 -26 -27 -28 -29 -30
leaf_value=-0.037326878722184133 0.0040783042461145754 -0.00077650524696960084 0.017886433934823885 0.0043703863605476035 -0.016396815095780174 -0.0073056389434347337 -0.022609497580072285 0.032166210909037651 0.023916362230419409 0.010538439991654439 -0.019400106242572296 0.046466785320045868 -0.008078211666038693 0.0025578517310716814 -0.009055233239814945 -0.0026844423920084617 0.0082966590493282824 -0.0012835858062172022 0.0026211509403248948 0.024675971476475125 -0.003238110724976229 0.019783854384199544 -0.01464501136644855 0.019159119405408379 -0.002985935779151952 0.0086337273504693418 -0.0025508393199103439 0.0076778712760086267 0.019683435665401018
leaf_weight=455.1580585539341 847.59762156754732 108.00589908659458 552.20199166983366 1522.3624823465943 935.35625852644444 1212.9203468337655 1040.9153943434358 537.61182977259159 471.17309586703777 350.21421229839325 1847.5380927547812 179.28845064342022 2002.4857058748603 1753.5882523730397 289.16402341425419 120.77826091647148 440.69859427213669 446.29175712913275 681.90273779630661 1409.186126947403 728.83858954906464 232.98095069825649 2049.2543431147933 796.7765491604805 1973.3672731146216 675.91156239807606 395.71827833354473 376.40694597363472 1297.6287560760975
leaf_count=3713 4454 499 3116 8317 6743 7163 7895 2602 2232 2289 14509 763 11752 9358 1890 639 2365 3122 4286 6216 4208 1193 14874 3970 13382 3775 2566 1857 6658
internal_value=2.36607e-05 0.00807571 -0.01071 0.00577724 -0.0073938 0.00864828 -0.0102541 0.0146525 0.00340596 -0.00514272 -0.0231189 0.0255099 -0.00438807 0.00852004 0.0059591 0.00887865 0.020712 -0.0154599 0.00967302 0.0274261 -0.00205707 0.00473515 -0.0123483 0.0160563 -0.000835963 0.00233632 -0.012467 0.0170523 0.0235435
internal_weight=25731.3 14714.2 11017.1 13017.8 8714.39 10167.7 7191.12 4715.86 5451.82 3654.66 2302.7 1696.48 2850.08 2834.15 1523.27 2439.92 2275.94 3536.46 1234.1 1588.47 2617.67 1986.57 2495.55 917.555 2323.58 1404.75 1331.07 847.58 1835.24
internal_count=156406 78021 78385 70543 60163 54337 50871 24551 29786 24980 18222 7478 16206 14640 9292 12926 11625 25891 7402 6979 15146 10551 17996 4609 15671 7983 9309 4089 9260
is_linear=0
shrinkage=0.0368943


Tree=23
num_leaves=30
num_cat=0
split_feature=6 57 61 73 73 66 62 62 64 66 6 6 72 6 64 66 66 57 72 25 71 71 61 66 71 71 72 62 72
split_gain=1875.68 763.779 321.161 194.686 172.312 142.653 136.509 124.654 98.1576 95.9866 78.3478 78.3174 76.3047 71.7781 71.2334 60.6292 60.1814 53.1171 50.4487 48.2827 47.5311 44.8914 40.3155 40.3097 37.9379 37.6191 37.0575 36.3937 35.1813
threshold=6.5000000000000009 0.18923181856935803 0.79285714285714304 1.5000000000000002 2.5000000000000004 14.500000000000002 0.41421568627450983 0.83974358974358987 0.24264705882352941 10.500000000000002 10.500000000000002 1.5000000000000002 0.071530904625460454 2.5000000000000004 0.63068181818181823 13.500000000000002 11.500000000000002 0.10367218987908641 0.11778579356270812 3.5000000000000004 0.068974327348334016 0.11100110011001096 0.88562091503267981 8.5000000000000018 0.074852129741380655 0.050058731401722754 0.026815675934803402 0.24264705882352941 0.047736916548797713
decision_type=2 2 2 2 2 2 2 2 2 2 2 2 2 2 2 2 2 2 2 2 2 2 2 2 2 2 2 2 2
left_child=2 6 4 7 5 8 17 16 -1 -4 22 -7 26 19 -8 28 27 -2 23 -13 -18 -14 -5 -10 -15 -16 -11 -3 -9
right_child=1 3 9 10 -6 11 14 15 18 12 -12 13 21 24 25 -17 20 -19 -20 -21 -22 -23 -24 -25 -26 -27 -28 -29 -30
leaf_value=0.0014559064464761795 -0.031467104110156123 -0.0041238873969132285 0.034098183070976743 -0.0055585581559400507 -0.0044238493230138202 -0.0073017034312865981 -0.018142422347525597 0 0.034296100481261617 -0.0031735344569396276 -0.014737984678128596 0.023582282641868346 0.018454824034448186 -0.0016149962141606871 -0.016868827761212686 0.008409945068421916 -0.0087935318706082767 -0.020520782836675223 0.036554713786951985 0.0031778230073728326 0.0022940515324291434 0.034988432082187659 0.007957382275887789 0.014481290584049594 0.0086818118109066693 -0.0026607241823968205 0.012245788372127231 0.01640173036904044 0.032020538221515293
leaf_weight=626.83358038216829 1015.027951925993 138.87545870989561 489.10742455720901 1428.350424207747 1712.6207621395588 702.81088910996914 1642.8652901574969 48.387236401438713 170.43827156722546 219.75659137964249 1304.5562486797571 458.44743125140667 1905.9046915918589 1149.5617264434695 354.51933154463768 719.89213214814663 930.70806085318327 2377.8465397953987 205.31821882724762 281.86999715864658 1151.5837929546833 301.62533743679523 364.59356580674648 1875.5609919205308 807.06394419819117 1043.3780727013946 1524.2045670002699 423.06266339123249 315.58879764378071
leaf_count=3324 9100 791 2108 9167 10593 3847 12892 247 827 1064 8463 2170 8663 6431 2693 3891 5646 19542 990 1387 6638 1341 2046 9537 4374 7711 7156 2215 1552
internal_value=2.17951e-05 -0.00962067 0.0103233 -0.000988269 0.00585652 0.0086961 -0.0187372 0.00465293 0.014756 0.0182955 -0.00784202 0.00348774 0.0162396 0.00638707 -0.0128673 0.0151582 0.000243697 -0.0239052 0.0183525 0.0161805 -0.0025711 0.020894 -0.00267612 0.016326 0.00253755 -0.0064686 0.0101781 0.0109667 0.0275969
internal_weight=25690.4 13259.2 12431.1 6825.6 7990.53 6277.91 6433.64 3728.1 2878.15 4440.6 3097.5 3399.75 3951.49 2696.94 3040.76 1083.87 2644.23 3392.87 2251.32 740.317 2082.29 2207.53 1792.94 2046 1956.63 1397.9 1743.96 561.938 363.976
internal_count=156406 92594 63812 40656 43480 32887 51938 20980 14678 20332 19676 18209 18224 14362 23296 5690 15290 28642 11354 3557 12284 10004 11213 10364 10805 10404 8220 3006 1799
is_linear=0
shrinkage=0.0368943


Tree=24
num_leaves=30
num_cat=0
split_feature=57 73 35 72 57 60 62 54 54 73 35 66 61 66 0 60 61 0 1 64 60 0 62 8 8 72 64 61 57
split_gain=1433.99 570.113 356.779 242.725 160.666 142.278 134.732 123.484 111.16 99.5293 84.1114 76.9846 74.4469 73.2623 67.5459 64.5606 63.9338 60.4893 59.7573 59.6875 53.1456 46.1207 44.7382 44.262 43.5478 42.0737 40.9279 41.5041 39.432
threshold=0.17292589609343531 1.5000000000000002 0.31414473684210531 0.072704488493962161 0.076505016722408017 0.74166666666666681 0.48529411764705882 2.5000000000000004 2.5000000000000004 1.5000000000000002 0.28991596638655465 13.500000000000002 0.97058823529411764 12.500000000000002 13.500000000000002 0.77350427350427364 0.88562091503267981 13.500000000000002 0.046693313953488358 0.12132352941176471 0.82843137254901966 42.500000000000007 0.46410256410256417 5.0066666666666677 5.3358974358974365 0.15450928381962861 0.080128205128205107 0.87083333333333346 0.09024873431653091
decision_type=2 2 2 2 2 2 2 2 2 2 2 2 2 2 2 2 2 2 2 2 2 2 2 2 2 2 2 2 2
left_child=2 3 4 7 -1 11 18 23 21 28 16 24 14 -8 22 26 -9 -17 -6 -16 -15 -3 -7 -2 -5 -13 -10 -28 -4
right_child=1 8 9 5 6 12 13 10 15 -11 -12 25 -14 20 19 17 -18 -19 -20 -21 -22 -23 -24 -25 -26 -27 27 -29 -30
leaf_value=-0.030539530274398676 0.020312065416679546 0.0083062546860064573 -0.010872727396730951 0.0238148121948051 -0.021670385224428716 0.0018353406883349183 0.0055190983281288167 -0.0046978470840795946 -0.021316554830351209 -0.0084775061319259035 0.011633656432098287 0.0029187103155424885 0.033358408424335725 -0.014540907598611236 0 -0.0059067328073907814 0.0078755251206655344 0.010285556301091113 -0.011355154953353342 0.028058908941400718 -0.0024149107167089085 -0.0085253862897627861 0.017016809543591572 0.0063104863166058558 0.0066435534084511305 0.024224871038123066 -0.0095558959232897502 0.0017651892411326331 0.012849480419955685
leaf_weight=870.23582751303911 818.0720608830452 1300.6486954838037 91.974597938358784 654.32469636201859 2340.8850174918771 407.72870997339487 497.31012060493231 2075.1157168447971 338.42250718921423 573.97134614735842 886.95293566584587 1524.4467086419463 649.83404769003391 1324.0356208756566 109.23351319134235 732.36229196190834 736.20598204433918 536.6808019131422 1334.7108140811324 1054.9193849414587 858.92185653746128 250.22251981496811 980.66713704913855 587.46349467337132 354.20857939124107 137.45124033093452 2153.0924634858966 514.25521080940962 943.82360665500164
leaf_count=7333 3821 7176 582 3196 18978 2283 3354 12004 2278 4293 4454 8160 2774 9811 546 4518 3582 3123 9670 4820 5843 1474 4865 2892 1789 703 14068 2806 5210
internal_value=2.03004e-05 0.00635553 -0.0119992 0.0113086 -0.0155017 0.0164381 -0.0133839 0.00535303 -0.00294258 0.00359161 0.00174211 0.00996892 0.0217394 -0.00694257 0.0186307 -0.00603392 -0.00132096 0.000790828 -0.0180055 0.0253839 -0.00988501 0.00543355 0.0127358 0.0146589 0.0180638 0.00488467 -0.00898148 -0.00729513 0.0104921
internal_weight=25638.2 16802.3 8835.87 10976.6 7226.1 5872.81 6355.86 5103.81 5825.68 1609.77 3698.27 2670.43 3202.38 2680.27 2552.55 4274.81 2811.32 1269.04 3675.6 1164.15 2182.96 1550.87 1388.4 1405.54 1008.53 1661.9 3005.77 2667.35 1035.8
internal_count=156406 91332 65074 55889 54989 29136 47656 26753 35443 10085 20040 13848 15288 19008 12514 26793 15586 7641 28648 5366 15654 8650 7148 6713 4985 8863 19152 16874 5792
is_linear=0
shrinkage=0.0368943


Tree=25
num_leaves=30
num_cat=0
split_feature=6 57 60 57 62 66 29 60 66 61 3 72 57 64 71 62 64 66 54 25 73 57 64 26 77 72 57 60 64
split_gain=1737.41 647.364 319.512 221.277 201.746 144.184 122.078 100.147 91.0126 89.288 85.2651 65.6358 63.2747 61.3116 60.5443 59.1797 56.2407 53.2935 52.7171 48.8131 48.3002 45.4771 42.9199 41.3686 36.8035 36.2411 36.1566 36.1451 37.1404
threshold=6.5000000000000009 0.18234615384615382 0.88562091503267981 0.15727513227513229 0.74166666666666681 12.500000000000002 0.18804847697884544 0.97058823529411764 11.500000000000002 0.76696832579185525 0.11483516483516476 0.10210597649021291 0.054745254745254705 0.4330357142857143 0.069688612490660509 0.74166666666666681 0.41421568627450983 12.500000000000002 2.5000000000000004 4.5000000000000009 3.5000000000000004 0.14238927011852773 0.41421568627450983 457.00000000000006 0.15192307692307691 0.13625693555271018 0.43708333333333332 0.29705882352941176 0.24264705882352941
decision_type=2 2 2 2 2 2 2 2 2 2 2 2 2 2 2 2 2 2 2 2 2 2 2 2 2 2 2 2 2
left_child=2 6 3 12 8 15 -2 17 -3 22 16 -11 -1 24 -10 27 -4 -6 -14 -12 -16 -15 -7 -18 -8 -9 -19 -5 -29
right_child=1 4 10 5 7 9 13 25 14 11 19 -13 18 21 20 -17 23 26 -20 -21 -22 -23 -24 -25 -26 -27 -28 28 -30
leaf_value=-0.030985291726949953 -0.024060879770618961 0.0042507772077292269 0.0075733291243030056 0.0024801529590000905 0.013304892819431202 -0.0034245703210411542 -0.021718275274609369 0.01416730575905086 -0.013814289627600312 0.0087567624269654677 0.034006970811310072 0.025516453382892261 0.010464858950299647 -0.014409103256213706 -0.00092366363685998101 0.026638724230262055 0.0093277184881788225 -0.0039379601794840013 -0.0054869672540480479 0.0083122286983346345 -0.015280467377294906 -0.002636171896349261 0.0054946504254377165 0.026259979209214468 -0.00307968168613564 0.042971363529038936 0.018301783913401887 0.0016254475992549693 0.020354470427953041
leaf_weight=109.29392453283072 2743.142741099 860.00343682616949 736.24005568027496 377.44950738549232 392.2921392172575 1167.896054059267 1189.509161837399 736.85498182475567 1793.994208805263 2219.8921028077602 791.29256628453732 392.47517265379429 333.89104679226875 945.31407658010721 1504.2978809028864 726.14498955011368 335.2740240842104 1223.6061835065484 1524.4840160235763 146.39663228392601 413.03047596663237 946.57027430832386 1882.9567134082317 767.96159335970879 197.2200253456831 71.757115975022316 100.48608133196831 208.59006077051163 780.89033573865891
leaf_count=775 24171 4951 3529 1936 2178 6511 9695 3583 11681 10594 3398 1794 1898 7677 9152 3351 1601 7607 9475 646 2794 6851 10133 3485 1550 329 472 1069 3750
internal_value=5.01559e-05 -0.00931881 0.00989814 0.00670659 -0.00173254 0.00951689 -0.0182136 0.00658739 -0.00637672 0.00638913 0.0209604 0.0114057 -0.00425974 -0.0132237 -0.00889893 0.0178385 0.0160087 0.00139275 -0.0024843 0.030294 -0.00416251 -0.00865574 0.00201119 0.0213794 -0.0192427 0.017267 -0.00201982 0.0129182 0.0166505
internal_weight=25619.2 13118.1 12501.1 9723.96 7096.32 7756.29 6021.76 2525 4571.33 5663.22 2777.16 2612.37 1967.67 3278.61 3711.32 2093.07 1839.48 1716.38 1858.38 937.689 1917.33 1891.88 3050.85 1103.24 1386.73 808.612 1324.09 1366.93 989.48
internal_count=156636 92691 63945 51286 42747 39138 49944 14169 28578 29032 12659 12388 12148 25773 23627 10106 8615 10257 11373 4044 11946 14528 16644 5086 11245 3912 8079 6755 4819
is_linear=0
shrinkage=0.0368943


Tree=26
num_leaves=30
num_cat=0
split_feature=6 57 61 6 57 6 6 64 55 62 29 64 1 8 73 1 62 71 62 6 71 62 6 8 6 55 0 65 71
split_gain=1626.56 547.74 369.792 211.683 199.283 127.081 113.788 111.073 94.6289 83.1027 73.7405 70.1194 68.2851 64.2763 59.2373 59.2158 55.108 52.8791 51.5834 43.0278 42.9357 38.8609 35.6536 45.1893 35.6128 35.4249 33.1288 32.7153 32.2441
threshold=7.5000000000000009 0.2658559782608696 0.81534090909090928 4.5000000000000009 0.14085765336509828 1.5000000000000002 58.500000000000007 0.69615384615384623 -1.0000000180025095e-35 0.48529411764705882 0.17775284954644383 0.31009615384615391 0.080322580645161262 5.3563492063492069 1.5000000000000002 0.032522474881015305 0.80625000000000013 0.035242974693370559 0.88562091503267981 2.5000000000000004 0.068475293348850566 0.60769230769230786 1.5000000000000002 6.1123737373737379 2.5000000000000004 4.5000000000000009 32.500000000000007 0.63068181818181823 0.058906146728354251
decision_type=2 2 2 2 2 2 2 2 2 2 2 2 2 2 2 2 2 2 2 2 2 2 2 2 2 2 2 2 2
left_child=2 4 3 5 21 13 16 12 28 25 -9 -4 -6 20 17 -10 -3 -13 -8 -11 -1 -2 23 -19 -24 -7 -17 -12 -5
right_child=1 6 11 8 7 9 18 10 15 19 27 14 -14 -15 -16 26 -18 22 -20 -21 -22 -23 24 -25 -26 -27 -28 -29 -30
leaf_value=-0.0052862358610174989 -0.025800797326182619 -0.0072049867681217555 0.0076029642178252321 -0.0024256100909761011 -0.019771189889470655 0.009523713895730852 0.0058313498975559284 -0.016389697992274015 -0.012689809118735674 0.024014190950392558 -0.0085208570422870208 0.00087967047099438817 -0.0071905827841373107 -0.0091516908219012802 0.010354313503720236 0.003941101068065069 0.0057579873408201455 0.018894001885746484 0.022513277013831046 0.012770655079308245 0.012090558384595657 -0.015031487185051148 0.033283598213203924 -0.0089626415965497266 0.021727148210580804 -0.00090123269007541008 -0.007853737095670445 0.0021004868045667795 0.0092853985802068759
leaf_weight=268.15888038277626 2163.7642585933208 1391.8864775151014 869.68685571104288 443.63154839724302 1970.2854410558939 1448.5711302012205 934.644327044487 572.32992248237133 1156.4712850451469 819.4630034416914 561.43852843344212 165.02274230122566 937.16595013439655 645.35440424084663 794.07513186335564 734.11369766294956 634.24564069509506 409.33320887386799 374.96149715781212 1494.3028917759657 568.20436090230942 760.53337880969048 744.32945692539215 83.064181119203568 1285.9498169571161 586.34877420961857 560.87374927103519 1247.8581680953503 938.77467768639326
leaf_count=1409 19771 8296 4087 2867 15176 7392 4803 4435 7853 3773 3919 753 6609 3463 3934 4479 3514 1780 1759 7598 2866 6246 3171 379 5768 3071 3639 8093 5733
internal_value=4.88417e-05 -0.0101921 0.00850322 0.00444767 -0.015313 0.00887956 0.00235841 -0.0109436 -0.00224038 0.0120569 -0.00488985 0.0174442 -0.0158106 -0.000314078 0.0198252 -0.00662638 -0.00303844 0.022517 0.0108454 0.0168933 0.00627032 -0.0231069 0.0238437 0.0137218 0.0261493 0.00642226 -0.00101713 -0.00109555 0.00538058
internal_weight=25564.8 11549.1 14015.7 9664.27 8213.38 5830.4 3335.74 5289.08 3833.86 4348.69 2381.63 4351.46 2907.45 1481.72 3481.77 2451.46 2026.13 2687.7 1309.61 2313.77 836.363 2924.3 2522.68 492.397 2030.28 2034.92 1294.99 1809.3 1382.41
internal_count=156636 82621 74015 54143 64249 29572 18372 38232 24571 21834 16447 19872 21785 7738 15785 15971 11810 11851 6562 11371 4275 26017 11098 2159 8939 10463 8118 12012 8600
is_linear=0
shrinkage=0.0368943


Tree=27
num_leaves=30
num_cat=0
split_feature=6 57 60 57 29 60 66 64 6 60 73 72 71 66 57 6 6 73 1 37 62 57 72 72 22 72 6 37 8
split_gain=1514.66 517.106 344.231 245.899 194.085 161.446 142.589 127.626 105.271 101.707 86.8112 82.5519 78.1728 75.6891 74.0508 64.6551 80.9261 62.441 56.1367 51.6704 51.3106 48.6712 51.7996 48.6283 42.721 41.7485 40.4025 43.9375 37.5439
threshold=7.5000000000000009 0.2658559782608696 0.88562091503267981 0.15831244778613199 0.17699806636772178 0.97058823529411764 9.5000000000000018 0.26969696969696971 58.500000000000007 0.13809523809523808 4.5000000000000009 0.10652482269503542 0.060696355690396206 12.500000000000002 0.054745254745254705 4.5000000000000009 1.5000000000000002 1.5000000000000002 0.060423512230741112 1.0000000180025095e-35 0.80625000000000013 0.09024873431653091 0.031414473684210506 0.072255689424364111 95.000000000000014 0.10310245310245307 1.5000000000000002 1.0000000180025095e-35 5.2118298368298381
decision_type=2 2 2 2 2 2 2 2 2 2 2 2 2 2 2 2 2 2 2 2 2 2 2 2 2 2 2 2 2
left_child=2 4 3 14 -2 13 -5 24 20 -9 12 15 -4 -6 -1 16 -11 26 -15 -18 -3 -14 -23 -10 -8 -7 -16 -28 -20
right_child=1 8 10 6 5 25 7 9 23 11 -12 -13 21 18 17 -17 19 -19 28 -21 -22 22 -24 -25 -26 -27 27 -29 -30
leaf_value=-0.031871904430172647 -0.023505582043581583 -0.0069688160346738394 0.0093783073791823737 0.024025675187285361 -0.0039650872629823416 -0.0020026522152966951 0.0006418165165905747 -0.0036086928402984191 0.0023121584251319877 0.00048575699420244834 -0.0043934198109956794 0.022726532248457491 -0.0064850944811719619 -0.02020057953639965 -0.010829310957326043 0.0028059430164991679 0.020414155774381135 -0.010794812948813903 0.0042888593781582928 0.0091520815474226032 0.0055311450991447119 0 0.026378655259700973 0.017001989755804893 -0.013285417868827133 0.019200967347742275 0.011559195022567244 -0.0038908686726994938 -0.012759940752191321
leaf_weight=132.29493736475706 2516.2428304255009 1386.2653912752867 701.24584356695414 697.19254162162542 811.05619053542614 1192.340290941298 1339.9902344942093 741.60582640767097 607.73469951748848 685.14383634924889 184.12589980661869 699.52640607953072 55.389821112155914 2354.6909797862172 265.1702284514904 1650.2843295484781 1281.4198800325394 955.64235035330057 192.88712865114212 1172.2350675165653 636.09686252474785 95.657242052257061 2028.3372836261988 707.23424334824085 371.83463574200869 135.39741182327271 593.03957860916853 400.30939874798059 922.17738044261932
leaf_count=1001 22135 8296 3403 3310 5961 7923 7254 4006 3142 3422 1054 3393 326 18969 1563 9456 6035 6934 1367 5504 3514 463 9079 3420 2055 847 3418 2339 7047
internal_value=4.56854e-05 -0.00989627 0.00817192 0.00509016 -0.0149192 -0.0110093 0.00797582 0.00652401 0.00227362 0.00898079 0.0191197 0.0107223 0.0207015 -0.0144918 -0.0054381 0.00889975 0.0120256 -0.0036854 -0.0168811 0.0151534 -0.00292855 0.0242141 0.0251291 0.0104122 -0.00229468 7.4462e-05 0.00157049 0.00513502 -0.00961555
internal_weight=25512.6 11462.1 14050.4 10985.7 8124.79 5608.55 8639.23 7942.04 3337.33 6230.22 3064.76 5488.61 2880.63 4280.81 2346.46 4789.08 3138.8 2214.16 3469.76 2453.65 2022.36 2179.38 2123.99 1314.97 1711.82 1327.74 1258.52 993.349 1115.06
internal_count=156636 82621 74015 59690 64249 42114 44435 41125 18372 31816 14325 27810 13271 33344 15255 24417 14961 14254 27383 11539 11810 9868 9542 6562 9309 8770 7320 5757 8414
is_linear=0
shrinkage=0.0368943


Tree=28
num_leaves=30
num_cat=0
split_feature=6 57 61 73 73 60 77 29 29 64 60 72 60 72 60 25 26 1 1 14 73 57 72 57 60 8 57 71 17
split_gain=1409.68 497.139 328.009 190.21 172.602 151.024 110.002 107.463 106.803 95.9135 85.3849 73.6786 69.4749 69.3807 65.925 51.0853 49.366 49.2335 48.6992 46.5301 41.0956 40.1188 39.664 38.3749 37.991 36.6365 34.2246 33.9396 32.3218
threshold=7.5000000000000009 0.18872737774355022 0.81534090909090928 2.5000000000000004 1.5000000000000002 0.97058823529411764 0.027402402402402354 0.22374494470208112 0.17699806636772178 0.41421568627450983 0.88562091503267981 0.10210597649021291 0.93541666666666667 0.095147564729313766 0.18465909090909091 3.5000000000000004 437.00000000000006 0.027402402402402354 0.087228260869565213 0.21210930990978125 3.5000000000000004 0.11410488245931276 0.037855266300453758 0.1375072296124927 0.11437908496732026 4.3827838827838841 0.09024873431653091 0.074852129741380655 0.50000000000000011
decision_type=2 2 2 2 2 2 2 2 2 2 2 2 2 2 2 2 2 2 2 2 2 2 2 2 2 2 2 2 2
left_child=2 8 3 5 7 6 15 27 -2 16 11 24 21 22 -11 17 -8 25 -6 -16 -20 -10 -9 -5 -4 -1 -21 -3 -18
right_child=1 4 10 23 18 -7 9 13 12 14 -12 -13 -14 -15 19 -17 28 -19 20 26 -22 -23 -24 -25 -26 -27 -28 -29 -30
